tree
version=v3
num_class=1
num_tree_per_iteration=1
label_index=0
max_feature_idx=529
objective=binary sigmoid:1
feature_names=Column_0 Column_1 Column_2 Column_3 Column_4 Column_5 Column_6 Column_7 Column_8 Column_9 Column_10 Column_11 Column_12 Column_13 Column_14 Column_15 Column_16 Column_17 Column_18 Column_19 Column_20 Column_21 Column_22 Column_23 Column_24 Column_25 Column_26 Column_27 Column_28 Column_29 Column_30 Column_31 Column_32 Column_33 Column_34 Column_35 Column_36 Column_37 Column_38 Column_39 Column_40 Column_41 Column_42 Column_43 Column_44 Column_45 Column_46 Column_47 Column_48 Column_49 Column_50 Column_51 Column_52 Column_53 Column_54 Column_55 Column_56 Column_57 Column_58 Column_59 Column_60 Column_61 Column_62 Column_63 Column_64 Column_65 Column_66 Column_67 Column_68 Column_69 Column_70 Column_71 Column_72 Column_73 Column_74 Column_75 Column_76 Column_77 Column_78 Column_79 Column_80 Column_81 Column_82 Column_83 Column_84 Column_85 Column_86 Column_87 Column_88 Column_89 Column_90 Column_91 Column_92 Column_93 Column_94 Column_95 Column_96 Column_97 Column_98 Column_99 Column_100 Column_101 Column_102 Column_103 Column_104 Column_105 Column_106 Column_107 Column_108 Column_109 Column_110 Column_111 Column_112 Column_113 Column_114 Column_115 Column_116 Column_117 Column_118 Column_119 Column_120 Column_121 Column_122 Column_123 Column_124 Column_125 Column_126 Column_127 Column_128 Column_129 Column_130 Column_131 Column_132 Column_133 Column_134 Column_135 Column_136 Column_137 Column_138 Column_139 Column_140 Column_141 Column_142 Column_143 Column_144 Column_145 Column_146 Column_147 Column_148 Column_149 Column_150 Column_151 Column_152 Column_153 Column_154 Column_155 Column_156 Column_157 Column_158 Column_159 Column_160 Column_161 Column_162 Column_163 Column_164 Column_165 Column_166 Column_167 Column_168 Column_169 Column_170 Column_171 Column_172 Column_173 Column_174 Column_175 Column_176 Column_177 Column_178 Column_179 Column_180 Column_181 Column_182 Column_183 Column_184 Column_185 Column_186 Column_187 Column_188 Column_189 Column_190 Column_191 Column_192 Column_193 Column_194 Column_195 Column_196 Column_197 Column_198 Column_199 Column_200 Column_201 Column_202 Column_203 Column_204 Column_205 Column_206 Column_207 Column_208 Column_209 Column_210 Column_211 Column_212 Column_213 Column_214 Column_215 Column_216 Column_217 Column_218 Column_219 Column_220 Column_221 Column_222 Column_223 Column_224 Column_225 Column_226 Column_227 Column_228 Column_229 Column_230 Column_231 Column_232 Column_233 Column_234 Column_235 Column_236 Column_237 Column_238 Column_239 Column_240 Column_241 Column_242 Column_243 Column_244 Column_245 Column_246 Column_247 Column_248 Column_249 Column_250 Column_251 Column_252 Column_253 Column_254 Column_255 Column_256 Column_257 Column_258 Column_259 Column_260 Column_261 Column_262 Column_263 Column_264 Column_265 Column_266 Column_267 Column_268 Column_269 Column_270 Column_271 Column_272 Column_273 Column_274 Column_275 Column_276 Column_277 Column_278 Column_279 Column_280 Column_281 Column_282 Column_283 Column_284 Column_285 Column_286 Column_287 Column_288 Column_289 Column_290 Column_291 Column_292 Column_293 Column_294 Column_295 Column_296 Column_297 Column_298 Column_299 Column_300 Column_301 Column_302 Column_303 Column_304 Column_305 Column_306 Column_307 Column_308 Column_309 Column_310 Column_311 Column_312 Column_313 Column_314 Column_315 Column_316 Column_317 Column_318 Column_319 Column_320 Column_321 Column_322 Column_323 Column_324 Column_325 Column_326 Column_327 Column_328 Column_329 Column_330 Column_331 Column_332 Column_333 Column_334 Column_335 Column_336 Column_337 Column_338 Column_339 Column_340 Column_341 Column_342 Column_343 Column_344 Column_345 Column_346 Column_347 Column_348 Column_349 Column_350 Column_351 Column_352 Column_353 Column_354 Column_355 Column_356 Column_357 Column_358 Column_359 Column_360 Column_361 Column_362 Column_363 Column_364 Column_365 Column_366 Column_367 Column_368 Column_369 Column_370 Column_371 Column_372 Column_373 Column_374 Column_375 Column_376 Column_377 Column_378 Column_379 Column_380 Column_381 Column_382 Column_383 Column_384 Column_385 Column_386 Column_387 Column_388 Column_389 Column_390 Column_391 Column_392 Column_393 Column_394 Column_395 Column_396 Column_397 Column_398 Column_399 Column_400 Column_401 Column_402 Column_403 Column_404 Column_405 Column_406 Column_407 Column_408 Column_409 Column_410 Column_411 Column_412 Column_413 Column_414 Column_415 Column_416 Column_417 Column_418 Column_419 Column_420 Column_421 Column_422 Column_423 Column_424 Column_425 Column_426 Column_427 Column_428 Column_429 Column_430 Column_431 Column_432 Column_433 Column_434 Column_435 Column_436 Column_437 Column_438 Column_439 Column_440 Column_441 Column_442 Column_443 Column_444 Column_445 Column_446 Column_447 Column_448 Column_449 Column_450 Column_451 Column_452 Column_453 Column_454 Column_455 Column_456 Column_457 Column_458 Column_459 Column_460 Column_461 Column_462 Column_463 Column_464 Column_465 Column_466 Column_467 Column_468 Column_469 Column_470 Column_471 Column_472 Column_473 Column_474 Column_475 Column_476 Column_477 Column_478 Column_479 Column_480 Column_481 Column_482 Column_483 Column_484 Column_485 Column_486 Column_487 Column_488 Column_489 Column_490 Column_491 Column_492 Column_493 Column_494 Column_495 Column_496 Column_497 Column_498 Column_499 Column_500 Column_501 Column_502 Column_503 Column_504 Column_505 Column_506 Column_507 Column_508 Column_509 Column_510 Column_511 Column_512 Column_513 Column_514 Column_515 Column_516 Column_517 Column_518 Column_519 Column_520 Column_521 Column_522 Column_523 Column_524 Column_525 Column_526 Column_527 Column_528 Column_529
feature_infos=[-1.7320966744398301:1.732184183727691] [-1.5781691221460845:1.7954844004581731] [-0.55867710337824195:132.28922047739533] [-1.8101293397814373:1.7403229718611577] [-2.1911551758727148:1.4838400582728324] [-11.423538886744998:5.669576152395555] [-4.514301692731733:0.8814716203783064] [-1.9289921602450433:2.1234815529559956] [-2.7615127537817674:0.90654981894862363] [-0.19593595588969642:41.985426217924996] [-0.10746715788171435:55.59712237290158] [-0.10258168645019185:30.085872657873033] [-0.096702194831245328:31.468343948218553] [-0.037273415081029299:148.42030419724122] [-0.064516836505065567:28.576089301143835] [-0.21344889118629282:13.788686312623966] [-0.12286300922063972:27.725590319564798] [-0.053171317301200491:30.541475866200447] [-0.059564324966317604:29.381413535660815] [-0.26184587430125833:12.420839193313887] [-0.06065043579767708:28.635446084224323] [-0.10590311188711074:29.14218432667246] [-0.053689811891152454:30.759418707097421] [-0.23638981931793696:20.921390524071388] [-0.15974544979576863:25.832610310557069] [-0.5840134261778771:3.672815008553425] [-0.56501979799946589:3.7966751405827091] [-0.31969480574355452:13.874865554665631] [-1.3110917980070806:4.3890727987702576] [-0.30775427658025301:11.905845736652692] [-1.7256618460146509:15.212062894441191] [-0.10140677126769256:27.192486137110407] [-0.20121927354977404:14.807573280170486] [-0.3372672887629054:3.9221463160343668] [-0.59642097572326114:4.3188271004577894] [-0.84349870798132509:4.0997967423508594] [-2.0655447720001443:13.731476859724282] [-0.080101503692160375:35.600608103145731] [-1.9794580952032077:17.756880621091923] [-1.1415477005763979:3.7041196080695342] [-0.91783342287536485:1.0895223197115944] [-0.88315186350826624:8.4129682349737287] [-0.85923372934197606:7.9277311253486715] [-0.75202423429411902:9.0178740028969919] [-0.7405535226742026:10.398828489037189] [-0.88244303331679308:8.3953988520539014] [-0.86396860228401773:11.549960596500453] [-0.89631911180320911:10.591350660762604] [-0.88589213776312892:10.327314715919982] [-0.49858106363789761:6.6959893443673195] [-0.48970904837112966:8.652867608723545] [-0.89498458320092356:5.0049795341638408] [-0.91700942466229873:8.4690748773406082] [-2.4091112331780944:0.41509083774467398] [-0.34650216606600664:21.569539583324289] [-0.33611655016318243:44.699070189024695] [-0.34063806548611553:42.555488044632163] [-0.33671906404986696:41.603172502481456] [-1.4347384966897856:12.89376712268542] [-1.3897214154498654:27.227610716509144] [-0.35676327753488424:15.16616148484502] [-0.34530221061321353:23.262386604104787] [-2.0293335305898892:27.841983613758401] [-1.9091750479451792:25.578133824827326] [-2.1813743038373379:10.843122846571999] [-2.1099519416820209:30.302701226356721] [-0.025040664777233552:36.987167064605678] [-0.025016738564049675:72.959843236152992] [-0.66828299608875952:9.5259745749877496] [-0.64697481620637487:16.343887776288415] [-0.36906867881899258:20.235553484158185] [-0.35782595790780747:41.861264096213894] [-0.3574339238154346:15.03269909012781] [-0.35527401786977114:37.713590147142803] [-0.73083461432576935:5.3614255400191775] [-0.74555532562153415:6.9839518974535544] [-0.99899418360648207:67.646205301240116] [-0.93242621264332537:60.361502444808529] [-0.30988128716666025:34.546978455912495] [-0.29810293632490398:51.741091058996361] [-1.5484131801815608:0.64582245410927364] [-0.34516910154377561:23.339461487146949] [-0.33293993307538483:21.016054370414981] [-1.0118021466925695:62.238922590312875] [-0.97483039471240385:58.054086494073076] [-1.480373242379379:10.806661526329654] [-1.4266854097432584:21.878054107622642] [-0.57609898185061315:10.335783203101462] [-0.56233287527274889:9.704025364580124] [-0.37290542549154088:14.651933995212465] [-0.3533345250901751:16.492499786306063] [-0.34644328560847304:30.79122673080056] [-0.9125486875545743:8.875533263405913] [-0.9364359460398719:10.254797199274579] [-1.7135185057846301:24.712615084193494] [-1.5038734537512983:44.541196529474064] [-0.34922888106214628:14.617396735668255] [-0.34637754124193054:14.212278973837234] [-0.33231547400939998:33.063052816923346] [-0.32281465222800415:30.598430624688941] [-1.4316071055975166:8.6416967972118623] [-1.3874630331034725:11.69678932710999] [-0.34378712465305017:20.425813790030897] [-0.33159449762839205:18.402296875560143] [-2.3787464117511568:0.42038949383588642] [-2.1115542479582983:10.478240559965954] [-2.0442410087701952:17.137303527308159] [-0.020257719324395226:48.663413986835693] [-0.66747019936842278:7.4517664660877081] [-0.6489182379356202:8.8065801057071891] [-0.36243397612340861:14.082989402640523] [-0.35835279336307418:13.636208169548715] [-0.35726954765077074:13.988094370912711] [-0.35807773266057674:21.210653703496423] [-0.84911874772592744:7.0267526463404311] [-0.87348522651976301:10.337736279909558] [-1.4206198000938999:43.797253334445422] [-1.2525013450893991:36.913276783175718] [-0.34745984949168046:20.00003432536511] [-0.32432103270842882:40.450412882667003] [-0.31472949822814683:37.438061648255776] [-1.4219840645300366:12.65558954225609] [-1.3804465812648139:11.717347582730055] [-0.35329958980091664:20.156908620919005] [-0.3406417904032587:18.157989787475039] [-1.6084302223718163:50.738909564584574] [-1.4926714789866713:45.584701367591627] [-2.255112322990283:0.44343689216952081] [-0.025937517817503836:73.400757519332529] [-0.669409823825584:9.4753268391269465] [-0.64650094137160108:10.605411178931936] [-0.37454453841416324:19.266377530286963] [-0.36996856983812831:18.703764474103593] [-0.36811342034170613:2.7165540421529233] [-0.28425236448647323:31.865935077822463] [-0.27972734089357698:27.402583321740149] [-0.2937208348724738:27.164708731842182] [-0.21096828894008682:31.571949938165673] [-0.31478605868575571:35.10677730677827] [-0.28038750951177094:32.183379807241543] [-0.18246735633629294:39.056685379823719] [-0.12997585595681538:40.982211437602061] [-0.16222885997253578:40.052858201802771] [-0.16989976870935006:41.088959538214098] [-0.15168425329256086:40.830516470524131] [-0.16520341538772626:48.626647968503541] none [-12.815282702102213:76.466464851881454] [-8.3235146679944876:49.181916539210221] [-10.806816094182942:64.292791527834993] [-14.118039830761104:112.56470312581911] [-11.783834304757153:93.719230029552705] [-13.302125089271158:105.98349064671322] [-9.6705694701563107:47.846458788368707] [-5.858504224797378:28.350871564544658] [-7.9824781734988735:39.255117062736282] [-36.233927701948893:72.386889002883848] [-26.886477515523847:53.662517159845976] [-32.506987890273329:64.923267558516315] [-28.525121451778997:56.947894412639734] [-16.470006006876332:32.759480170725894] [-23.756051405399049:47.387937810923482] [-4.5557999996286984:48.515991870595471] [-3.1626773652818194:31.937004883270351] [-4.0249042349972584:42.2289551632458] [-0.113664955962458:158.30750741558262] [-0.2211269669898133:78.008054916667291] [-0.17079776099636265:128.39451613681237] [-0.063989846514450582:409.29265633216693] [-0.28253503160541676:191.8544556029324] [-0.16591995955097466:329.24091702521946] [-0.07461304029817134:134.67575481451573] [-0.10749423839217692:64.492816561489434] [-0.098521210513949437:107.01521732388751] [-0.077793967721692461:149.65506377837724] [-0.10960253901019104:128.41850240694677] [-0.089676385085828869:141.74731724660083] [-0.032196816272178005:115.16522162383951] [-0.25698823520508118:47.000849549535637] [-0.24899504583943005:43.60679789907411] [-0.06709298773228152:58.116217689851958] [-0.059691617851255159:75.342935615436176] [-0.14206601792550369:14.529678672493546] [-0.13934842410128745:12.753304401203454] [-0.13953289607270586:9.8576015375833528] [-0.09077374118827114:63.679354382299451] [-0.088272858662941586:57.363814073201937] [-0.34380594187547847:39.625935985672974] [-0.33512379387531482:40.876442239355171] [-0.14049735670795624:8.7352930663372028] [-0.16634084400141075:7.7968973464930604] [-0.16889379521132286:6.7996779272218602] [-0.35432308173305177:17.585891012041973] [-0.35207298553478822:23.29682475963337] [-0.3430215440980498:36.594320516930914] [-0.33464436944483911:43.462582793468201] [-0.33120380432971208:35.757494265311074] [-0.32300574224703893:39.162506971863607] [-0.13654220647158261:14.261476887800296] [-0.13965461614016353:9.6490871905365232] [-0.032186993727985495:113.26559227256037] [-0.035519956496038542:100.88328366110227] [-0.033579471153713278:105.6732249955343] [-0.13947745874448353:59.559792656780566] [-0.1443952157462329:11.025722600776088] [-0.13902518626362265:56.420154070061237] [-0.13140005253657835:46.27049576960524] [-0.071540663248492758:48.4341089471095] [-0.096517894755004607:39.329245515982123] [-0.35421053814095688:46.192220697003592] [-0.33743552542290295:40.896941889527739] [-0.067405660764808292:57.574011085122848] [-0.10656155956993749:42.413728254874307] [-0.15260843507419036:41.234353132799214] [-0.12844499172827761:49.573135194105191] [-0.31439532346225896:42.568468881349673] [-0.11318270228166015:60.162658721239978] [-0.069066936440925028:39.351946407318856] [-0.086878485468406291:42.860213538600718] [-0.066663418218230477:40.451159899606836] [-0.11771274436555183:47.391255178001941] [-0.07225404180429236:38.931407608753943] [-0.095680767252372789:52.135291983079981] [-0.1207731475822328:54.873648376957192] [-0.1191035247764516:53.365924391203158] [-0.35549405857850219:45.291910817828537] [-0.089295838959053075:38.569298834646681] [-0.49651599203439284:32.120168439454474] [-0.46630728287416623:29.517674460847612] [-0.33184227460727667:44.534529038992659] [-0.45823186536110816:34.839464125480063] [-0.20782176710504163:28.000091065250022] [-0.27545540778083627:32.855927178152044] [-0.55396170748588536:13.10297723399218] [-0.54168552329258912:17.123883548202041] [-0.35901649577640748:46.86643006706349] [-0.54578581613189203:28.423663414184453] [-0.50849194051628555:28.178226536039087] [-0.31109218875145911:42.705074903323379] [-0.37844080692607462:59.396338329414689] [-0.36400840945602264:55.45148694837922] [-0.069454347072754011:171.33686133734727] [-0.047323281364603863:39.313707958893715] [-0.052647548118586872:54.497696582921471] [-0.033120037975130349:348.11189737683566] [-0.015442204145109703:469.36401325576742] [-0.037979675213964822:104.48116740972519] [-0.067503605591373125:90.749148932524321] [-0.050424600175363869:77.270093576703871] [-0.06482877918347546:71.744821031664117] [-0.065858932089813679:85.454560322509693] [-0.047811833260540275:66.438832994932241] [-0.055957478767780629:45.119636272474608] [-0.044035490266489029:158.74536200594397] [-0.054062526350445131:57.599667308385612] [-0.05507753664386239:122.34921974990054] [-0.15489731240205204:55.13163925486846] [-0.087618860318964875:73.362798449809233] [-0.13472216691260988:55.854810259769231] [-0.089500093511459197:45.134864783576042] [-0.21228161638207083:242.31488110894315] [-0.21406492567406166:230.5588308615213] [-0.10776070016750845:71.85773032113535] [-0.04724426250724266:79.636479395171293] [-0.064355289483913294:76.041590892514705] [-0.057489702185888558:215.94137329064097] [-0.033678919958336773:310.08295072139759] [-0.37020821479418431:61.618810066978185] [-0.16466036474052984:73.761899580921877] [-0.2882444614093953:53.40012381991901] [-0.11114644962787995:63.631364861254262] [-0.11043259362583145:46.02654093988081] [-0.11408984885252739:55.894899538856052] [-0.079890631976859305:22.943209001352667] [-0.11943338266231202:51.978194167869603] [-0.089621283770404736:61.387851284217838] [-0.11606018860866207:46.356289615595998] [-0.11440740093678269:81.56198438467716] [-0.1122808559666256:74.628917475424629] [-0.56475085775143463:15.7159107927245] [-0.56568062828566434:11.092425884037354] [-0.47420496379925148:34.853295463781023] [-0.3226095606898608:64.308190050293149] [-0.46717300794736771:37.686209954818786] [-0.21836588120582479:246.39690594304716] [-0.40660635459890704:64.111823814415175] [-0.54557809908447286:23.65422634453137] [-0.39436285289761097:54.329578496113228] [-0.48408960965408399:41.683450220549211] [-0.4962204621993081:39.649896823488071] [-0.49191853959791515:39.029699257469282] [-0.52310726557356291:34.982606126149271] [-0.14108481028514325:79.903304097681385] [-0.30346600762561549:69.024881311013402] [-0.36058216033378104:145.54555851289467] [-0.35345948141023775:141.00936366336416] [-0.36039293769207292:57.321529019033711] [-0.2751916833246833:56.171034911869022] [-0.20907712741014206:232.68065302379188] [-0.51738201506268422:17.212172128492558] [-0.32638375098776984:60.212196942343063] [-0.45824737924715042:36.968687167298782] [-0.06311363552209949:200.57017133061782] [-0.036855739200271666:74.651491347171699] [-0.055270400681833913:132.38913850104109] [-0.019522550815502873:449.2884966236046] [-0.025142621245200277:158.63396219358035] [-0.026810171321315312:323.13341918639605] [-0.012994890492510836:450.52947741549298] [-0.059102655971077001:107.93595479003218] [-0.063333020487701522:96.752544802305593] [-0.060723745724415877:101.48098041889965] [-0.062080914120683645:106.32010843886334] [-0.038788697859756104:164.64937697376521] [-0.052965686784947286:101.03936041782912] [-0.038544571156407678:164.82222377610671] [-0.040139981759314027:108.31913550482923] [-0.042548761796470276:149.67762248409389] [-0.26557815919798189:55.396820511283451] [-0.16129664423324747:66.766052433880503] [-0.17300340318763266:42.28368170138797] [-0.91092353207463406:32.835112552377815] [-0.63690621985410922:42.226436103248425] [-0.25666579353231772:26.190396789626032] [-0.33321401279247992:29.379582856071444] [-0.16620995774657263:40.673758968600865] [-0.3159454430801325:29.257142606256505] [-0.41849433193602026:23.096918223402461] [-0.38537731233843792:19.744533566406158] [-1.3498836993609902:79.342440240840574] [-0.09495036434715165:58.490703642029203] [-0.29295233107311985:75.290579529988037] [-0.15942621417233674:65.900957304572103] [-0.049988061585707427:59.312551742005851] [-0.077852510804330977:70.962206294763291] [-0.14336420305963221:46.984473864714552] [-0.17340022962885757:30.102774233433195] [-0.15209845095064925:45.484439188109121] [-0.16956799609358553:46.420068778930229] [-0.15614500500265788:37.600993409537452] [-0.16391186656297574:34.920665531199354] [-0.5596602943693697:20.179924848481974] [-0.50268592630065156:28.549934069935922] [-0.54538497944161557:20.986153135422541] none [-0.12301825657337769:135.16451931323081] [-0.15178437143006857:55.705777119020034] [-0.16803043301375584:90.043585826134859] [-0.079593664510957562:401.15596818944721] [-0.31972672444500383:162.21070021659506] [-0.035196278307019623:440.27615535939617] [-0.20063088552657954:304.25518977535904] [-0.21804196939145185:51.383965159781546] [-0.24589500838035452:37.742472429879825] [-0.22729268981759881:42.185528451373251] [-0.083713131862034537:108.703099191348] [-0.072273081153480467:60.686090618136298] [-0.096630341308879722:64.5254377879061] [-0.073729843497404343:129.56750018381882] [-0.11055560231839524:107.90685198744924] [-0.088749266209883201:122.13113575360526] [-0.1181114049134467:63.033081803946601] [-0.10005416539182503:37.422251053101419] [-0.12508677744516095:48.181112928015736] [-0.06423291450992466:81.589598603321463] [-0.063784972065146398:48.018882829331005] [-0.071840634899765651:61.043987632575657] [-0.090453661291439322:57.683493171254327] [-0.07675652917791416:55.615625277676173] [-0.091414473444624236:51.559452815499377] [-0.048805029159705589:221.00272066486713] [-0.056780411817987007:184.80046389073456] [-0.05388816783318507:212.2164845237146] [-0.012870662604268258:468.05223940377459] [-0.028962403121013419:402.24958778180235] [-0.019186645006687562:460.64930857135516] [-0.038302101064136347:206.80503267869562] [-0.042317747485364689:190.08679432546057] [-0.040142800954815698:203.16942932808743] [-0.37090754626282213:2.6960896592042047] [-0.26839230362349059:3.7258892542717326] [-0.27950660276474326:3.5777330127749654] [-0.13265865391058143:7.5381437284449655] [-1.6120165603508345:0.62034102167186356] [-0.12818347583793993:7.8013175525391576] [-0.10768180129954456:9.2866202824583457] [-0.68076189119522679:1.4689423907737851] [-1.3739837404612245:0.7278106505571279] none [-0.5976322714797655:1.673269747505358] [-1.6643908979006174:0.60082039697606593] [-0.0079290199567895285:126.11899143269424] [-0.024105892937995609:41.483632345508497] [-0.26277292060561375:3.8055671706783807] [-0.22396081069393112:4.4650668878253796] [-0.080823890670925991:12.372579341317458] [-0.057766579242598842:17.311047548797379] [-0.016047276998558169:62.315868299017268] [-0.01764739056658865:56.665601422868399] [-0.017217820420743286:58.079360544104837] [-0.039409241773295953:25.374758686111246] [-0.11792962020934417:8.4796338547078953] [-0.049818107419904514:20.073022677703246] [-0.028963918587399416:34.52571505414479] [-0.020549319510714151:48.66341191875545] [-0.021822181159757904:45.824933478422935] [-0.01764739056658865:56.665601422868399] [-0.029426125253189411:33.983407308837343] [-0.79212701896322857:1.2624237982802871] [-0.01566954727237798:63.818053107557468] [-0.011079363063239686:90.257896080498426] [-0.2936963123303018:3.4048776168335499] [-0.0088226649761932417:113.34443761588626] [-0.021545810822253958:46.412734626219475] [-0.021195290387116688:47.180292495914003] [-0.10307860370493024:9.7013343609365368] [-0.024229904084513622:41.271314839382434] [-0.072694736458455547:13.75615414152429] [-0.036850211565359219:27.13688626254844] [-0.0089907442976078777:111.22549667729569] [-0.028546807714599713:35.030186562281322] [-0.031110539394950815:32.143447829846956] [-0.053601281337982795:18.656270429329872] [-0.084189164082999798:11.878013172979454] [-0.019270264504323658:51.893423661913452] [-0.01764739056658865:56.665601422868399] [-0.043330199813354522:23.078591936051879] [-0.093304107154662988:10.717641811226782] [-0.028860204171489157:34.64978951839484] [-0.018877612300945427:52.97280101201769] [-0.010805723961459013:92.543544844076976] [-0.01198803591622739:83.416500166334004] [-0.017562316110831512:56.940097973937064] [-0.023412120391137475:42.712918919490285] [-0.033880102148148877:29.51584961660561] [-0.072109798651614446:13.867740843811266] [-0.016687764005627027:59.924145599302889] [-0.0081156228092990907:123.2191322216422] [-0.015184190169534571:65.85797390804494] [-0.020476289259434191:48.836973698213519] [-0.069895220642353401:14.307129883985862] [-0.018798099117626515:53.19686813771105] [-0.020982172726556312:47.659506621749337] none [-0.0094771191729967653:105.51729716022869] [-0.45406197575697621:2.2023425289749916] [-0.052951424410136588:18.885233232905598] [-0.0094771191729967653:105.51729716022869] [-0.015953682187085656:62.681454241923525] [-0.014057596951461061:71.135913446150255] [-0.063724125581401975:15.692643733849081] [-0.0088226649761932417:113.34443761588626] [-0.19838394001325166:5.040730615256467] [-0.086203365871233936:11.600475107825229] [-0.029527858673679717:33.866323022311498] [-0.029067264180315078:34.402962514690998] [-0.0071339773134258917:140.17426129433238] none [-0.0081156228092990907:123.2191322216422] [-0.016140329635648553:61.956603277255077] [-0.060494106153396288:16.53053600733065] [-0.030180797335910385:33.133650806837956] [-0.012357040077555673:80.925528583201668] [-0.010943398427561667:91.379291964864748] [-0.010089224212209213:99.115648435077517] none [-0.013842923098561595:72.239077894170265] [-0.33873622053417557:2.9521496060357335] [-0.015573684847390497:64.210879428933509] [-0.010236535271843651:97.689303406258333] [-0.22831949240381397:4.3798275367193114] [-0.0086513218334935294:115.58927285868702] [-0.021195290387116688:47.180292495914003] [-0.021336188331300479:46.86872765052351] [-0.049545618802182688:20.183419324978651] [-0.010524976317940995:95.012090269066803] [-0.038872220798832111:25.725311789493766] [-0.03676866431454541:27.197071708813951] [-0.00882266497619324:113.34443761588624] [-0.020549319510714148:48.663411918755443] [-0.01566954727237798:63.818053107557468] [-0.033028104583501222:30.277244565209994] [-0.040276044012097126:24.828654961734685] none none [-0.019425106404346925:51.479769489253407] [-0.065775483863425674:15.203232895654125] [-0.028703932255065592:34.838432278682738] [-0.018877612300945427:52.97280101201769] [-0.0086513218334935294:115.58927285868702] [-0.0082980315507460659:120.51050829158278] [-0.0079290199567895285:126.11899143269424] [-0.0097879558976867332:102.16637778643232] [-0.010943398427561667:91.379291964864748] [-0.032982655683466686:30.318965507112662] none [-0.0091557395493377641:109.22110601893753] [-0.0081156228092990907:123.2191322216422] [-0.0073408130824101784:136.22469183913276] [-0.0081156228092990924:123.21913222164223] [-0.035733710092769176:27.984779565398462] [-0.018798099117626515:53.19686813771105] [-0.0097879558976867332:102.16637778643232] [-0.0084765169485120674:117.97298419553526] [-0.0086513218334935294:115.58927285868702] [-0.14260667489354611:7.0122944858400666] [-0.052637819338718174:18.997747485797568] [-0.0097879558976867315:102.16637778643229] [-0.010943398427561667:91.379291964864748] [-0.013177951809741111:75.884326672131451] [-0.020838885620000767:47.987210939927564] none [-0.93287685361338779:1.0719528479312339] [-0.22657244012604344:4.4135994626870545] [-0.84490835810843656:1.183560312077844] [-0.33222515191549462:3.0100069011462498] [-0.75971468995786184:1.3162836170187335] [-0.69624156499100298:1.4362831096028024] [-0.30805619845814491:3.2461609440261547] [-0.33979500753143277:2.9429508316348492] [-0.52990199944184846:1.8871413979439802] [-0.46441368022474727:2.153252676613794] [-0.77227525072787351:1.2948751096937194] [-0.68106798499033316:1.4682822009526602] [-0.63798367902907427:1.5674382164789322] [-0.21673106906168607:4.6140131377074507] [-0.51908152223816573:1.9264796706463743] [-0.37258714295267825:2.6839358762495151] [-0.23516813610622989:4.2522767606079128] [-0.62631348247929952:1.5966445366008091]
tree_sizes=27127 27666 27634 27678 27700 27816 27797 27876 27782 27929 27781 27922 27899 27867 27919 27839 27903 28038 27893 27937

Tree=0
num_leaves=256
num_cat=0
split_feature=297 228 11 18 357 83 11 11 20 26 101 322 237 236 248 1 34 193 452 30 73 4 94 1 83 92 7 32 296 322 11 300 354 347 130 262 257 322 6 4 101 26 126 37 11 207 356 349 25 352 117 227 408 330 452 186 83 315 90 264 408 297 4 26 11 393 385 208 349 191 340 163 25 6 12 408 3 197 4 32 26 227 1 316 12 56 1 39 133 11 18 11 316 346 12 356 348 4 32 324 34 310 178 356 4 173 105 352 445 92 359 321 211 354 9 352 242 1 359 39 170 3 347 25 300 6 6 314 257 307 309 346 253 1 16 1 4 11 3 165 354 354 117 1 32 126 7 1 380 12 470 1 1 411 122 346 11 26 6 284 12 94 284 314 328 39 1 113 352 210 303 352 354 523 36 11 243 282 385 1 411 306 142 4 16 52 121 170 32 356 1 18 1 408 282 167 126 39 1 126 12 32 4 32 3 106 445 34 188 356 1 94 27 355 39 28 213 4 421 351 39 4 337 170 411 85 182 217 11 1 6 348 302 252 4 408 4 7 117 243 4 408 354 16 1 86 11 300 347 1 233 6 165 26 172
split_gain=24649.8 4618.96 4211.15 2760.95 2103.9 1836.26 1590.54 1160.62 1606.47 1521.4 1108.84 1245.17 1023 970.564 950.074 787.354 749.14 668.952 626.209 611.464 588.372 1230.16 849.033 738.559 601.161 532.284 762.086 514.171 474.635 473.649 429.878 410.34 390.598 327.27 306.032 301.705 298.068 291.41 280.377 279.109 257.987 522.657 251.019 238.071 246.669 234.866 230.428 290.263 226.86 224.261 290.822 212.007 211.13 195.898 194.927 194.715 193.385 192.35 188.455 195.291 185.708 183.462 161.302 160.391 159.035 157.068 156.975 152.387 151.514 149.935 148.599 150.092 594.533 176.21 145.084 154.276 133.167 132.307 131.07 130.515 136.722 128.396 199.362 167.118 128.266 127.022 124.243 161.686 121.397 121.397 192.882 117.776 117.71 116.971 112.806 112.162 109.505 109.355 104.918 104.882 120.927 102.803 102.625 156.312 102.442 101.698 100.86 99.5358 97.4717 151.433 176.31 101.576 95.1992 95.0272 168.338 118.969 94.9719 95.6483 90.1635 90.4903 142.846 88.218 87.6859 135.228 86.8706 131.528 85.647 85.3877 84.9598 84.7523 111.359 81.5065 81.2979 81.053 107.505 80.6677 79.8141 79.4433 79.3321 96.0766 78.7786 159.678 78.4067 78.3294 117.961 77.5874 77.5521 77.2738 145.555 250.664 177.603 131.473 106.951 94.3775 78.5234 76.2833 75.4251 120.145 109.67 73.9132 73.5322 214.586 72.6775 72.026 70.5843 97.9315 69.7224 81.0743 177.555 69.4176 68.6014 68.4802 106.606 142.875 67.7593 64.2537 100.543 64.1702 63.7615 63.7198 63.1415 61.8232 61.7049 58.7138 58.1239 55.089 54.0856 101.776 53.5934 53.4706 53.35 83.3993 52.102 51.9116 74.2997 51.8493 49.332 82.2526 49.2474 48.8731 67.7935 48.79 48.2657 47.9251 47.7286 78.9008 66.152 169.063 47.7681 46.969 63.3477 46.9162 46.1936 45.9169 45.0821 56.2882 44.9623 43.9096 42.9272 42.3359 93.6551 88.6285 41.9378 43.617 41.4727 88.1105 41.47 56.6491 41.183 41.1606 40.9808 50.5413 40.9215 70.7623 40.0884 39.7199 39.3849 38.8379 38.8354 38.6458 38.2018 60.3362 55.5349 37.9846 56.5297 37.9767 37.7811 61.0976 37.5118 36.7494 36.2956 36.1272 35.621 35.2357 35.1806
threshold=1.8629229604326545 2.1793381651012855 -0.073585305543157786 -0.028629643935937848 0.043989378153493575 2.282506433359798 -0.080028945744720914 -0.073585305543157786 0.77195046108352627 -0.54116677880409447 3.2854842384013363 5.9816981094484882 4.6141363588686035 2.7968429412123021 0.079810046674340843 -0.68890757518337942 -0.58734108395691675 4.0820953416842434 1.0000000180025095e-35 3.7715033023732034 1.0000000180025095e-35 -1.8849055730272524 1.0000000180025095e-35 0.70031085512103786 2.282506433359798 2.0238758977335727 -1.0096809938244369 1.6068976540937467 3.8455805383191826 4.7210115705337081 0.010182017077162773 8.9397255388077692 1.8717918003913498 0.92064580673950713 1.0000000180025095e-35 1.0000000180025095e-35 1.421636289889149 1.0000000180025095e-35 -1.8619489881860807 -1.0000000180025095e-35 1.4163053297994128 0.41976913735229088 0.94236504756048201 1.1510396684383819 0.14549846130998834 0.94369386347993034 -0.052463312718490973 -0.23422083007388603 -0.31463600179253681 6.8994372205080117 0.72159062706224508 4.3000552478904419 -1.0000000180025095e-35 1.0000000180025095e-35 1.0000000180025095e-35 1.0000000180025095e-35 0.96478300133885087 0.94682167057148459 1.0000000180025095e-35 1.0000000180025095e-35 1.0000000180025095e-35 2.7181688179355894 1.1867779435127344 -0.17314876836122353 -0.04781074473690531 1.0000000180025095e-35 1.0000000180025095e-35 3.188962389473089 0.5592643600320496 1.0000000180025095e-35 1.0000000180025095e-35 4.1497564364998833 2.924544385260814 -0.80328460396828816 -0.082835982327709126 1.0000000180025095e-35 -0.14145349479591277 5.8466056193327507 1.3154027767078285 -0.025907951726190294 -0.53435163046255985 6.2186837438603755 1.451335382869781 0.12652785538041952 3.3337987785436094 1.0000000180025095e-35 0.41845461749741347 -0.54869790136217478 1.0000000180025095e-35 -0.041367104535342196 0.024401237830427445 -0.092916226147847156 0.024713694004563146 -0.09870460950818892 5.6605492366369834 -0.07206798814459324 0.48068038104861704 0.096529357382888342 -0.19277301842050615 1.6997668256034728 2.6511536460392189 0.43407672253150753 1.0000000180025095e-35 -0.07206798814459324 0.96015323740709213 0.98276526824704546 1.6653841944189776 3.3273885856600791 1.0000000180025095e-35 -1.0000000180025095e-35 1.8097130488193651 2.8991128000409661 1.0000000180025095e-35 1.4287689495744311 3.2631325832521174 1.5069254991937537 -0.023300579241011577 -0.49805418179549793 1.2389491066721892 -0.67322342996424911 2.4688865819960513 0.96048492100278515 2.1230172816342181 2.1130864648901593 1.5268381069713375 0.61965139632444377 0.61965139632444377 0.79073995012366016 0.41546618975040644 0.095212200868066296 0.94748823307235486 -0.087827608994325054 0.11666369634717182 0.14079174183370899 -0.079600875776010757 0.25548807345421054 -0.90184434789331858 -0.060698025140031552 0.049704294663285221 -0.0020157476709857444 0.56954899285935168 0.65329184489867431 0.72159062706224508 -0.5182232701925874 -0.092653975574851152 0.94236504756048201 0.4387031295974157 -0.82887960617751855 1.0000000180025095e-35 -0.082835982327709126 1.0000000180025095e-35 -0.020313936324551949 -0.68890757518337942 1.0000000180025095e-35 5.1684505007326207 0.1210044071272136 -0.041367104535342196 0.55607210418298392 -0.08612485982075134 1.1935536139711962 -0.077289497326294643 1.0000000180025095e-35 1.1935536139711962 0.3800600140730202 2.1308615475046371 -0.651566816294323 1.0163879532901807 1.0000000180025095e-35 0.76802036571327637 0.95113876879430481 0.26184816351662021 1.6134523267830774 2.9651117079318037 1.0000000180025095e-35 6.4611244887170916 -0.041367104535342196 -0.016768216403417892 2.5120746327743069 1.0000000180025095e-35 -0.71166554705605156 1.0000000180025095e-35 0.26222534858200525 1.0000000180025095e-35 -0.074970420210570529 -0.03015843755357768 1.8988158659385739 1.5946388512098477 0.12679648690259379 -0.041152418183543836 0.12485147729951053 -1.0255318081181557 0.11278604077436961 1.3383897141168439 1.0000000180025095e-35 1.3782009553886398 2.656473019459304 4.1890804162900208 0.70197153807604906 -0.71166554705605156 2.5657227319252511 -0.04955707231922226 -0.19318503438060511 0.95402824535018282 -0.19071295895391932 1.0609116507560425 1.5522985917444962 1.0000000180025095e-35 -0.4965421662934737 3.7860328094477347 0.052341850386436732 0.97375987719494395 1.0000000180025095e-35 -0.14068328784521908 0.038775706533469463 -0.24550530998321154 -0.20340456640634513 1.0000000180025095e-35 -1.1223440619420513 1.0000000180025095e-35 1.8287984182868811 -0.651566816294323 1.0459031262038216 3.2463671179155047 2.4688865819960513 1.0000000180025095e-35 1.5913854497978797 1.0000000180025095e-35 0.38579090983322634 -0.092916226147847156 -1.0000000180025095e-35 -1.3838424920877228 0.33184329088977432 0.17963444458870637 0.11026538668192988 0.96015323740709213 1.0000000180025095e-35 -0.38122002305603281 0.5062443581507664 2.0376519418300081 0.34347186365776894 1.0459031262038216 -1.0000000180025095e-35 0.74196620354280773 -0.11668270444283559 -0.10311367455227859 1.4864070299274794 -0.092916226147847156 1.0000000180025095e-35 -0.11072187788088189 0.14079174183370899 2.8602730278836312 0.57411744431507639 -0.010278076388776076 -0.53435163046255985 -0.020498179994674348
decision_type=2 2 2 2 2 2 2 2 2 2 2 2 2 2 2 2 2 2 2 2 2 2 2 2 2 2 2 2 2 2 2 2 2 2 2 2 2 2 2 2 2 2 2 2 2 2 2 2 2 2 2 2 2 2 2 2 2 2 2 2 2 2 2 2 2 2 2 2 2 2 2 2 2 2 2 2 2 2 2 2 2 2 2 2 2 2 2 2 2 2 2 2 2 2 2 2 2 2 2 2 2 2 2 2 2 2 2 2 2 2 2 2 2 2 2 2 2 2 2 2 2 2 2 2 2 2 2 2 2 2 2 2 2 2 2 2 2 2 2 2 2 2 2 2 2 2 2 2 2 2 2 2 2 2 2 2 2 2 2 2 2 2 2 2 2 2 2 2 2 2 2 2 2 2 2 2 2 2 2 2 2 2 2 2 2 2 2 2 2 2 2 2 2 2 2 2 2 2 2 2 2 2 2 2 2 2 2 2 2 2 2 2 2 2 2 2 2 2 2 2 2 2 2 2 2 2 2 2 2 2 2 2 2 2 2 2 2 2 2 2 2 2 2 2 2 2 2 2 2 2 2 2 2 2 2
left_child=1 3 12 4 17 7 13 31 9 16 25 53 15 67 63 58 19 20 35 27 34 23 56 65 33 38 -27 54 36 78 -21 32 69 42 37 43 60 77 40 68 140 88 64 94 -45 216 156 126 98 70 164 79 -26 105 89 179 97 116 159 61 138 -60 -31 84 107 -22 96 91 -13 209 71 99 73 -73 75 246 -54 122 186 80 112 82 83 -37 175 -77 -68 155 229 90 102 -3 -38 101 127 129 160 188 -7 113 -101 -94 103 137 142 -12 202 183 133 -110 111 -111 -16 204 118 -116 -15 128 119 120 192 124 147 184 182 -126 -48 143 -118 177 -131 -71 -114 240 135 -135 -61 -9 139 163 185 -142 -87 144 180 245 -35 189 154 150 170 152 -152 -154 162 -88 -11 158 -158 -2 219 -162 178 -17 -51 -166 -137 211 -169 -57 -150 -143 173 -173 -145 176 -8 -62 196 -19 -4 -161 232 193 -124 217 243 -188 -23 -1 191 -91 -115 -24 230 -122 212 -198 -79 -76 -201 -140 -55 -144 205 208 224 -208 -40 -5 -211 -168 218 -178 215 -191 234 -6 226 254 221 -221 223 -163 -207 -226 -149 -228 -180 -42 -195 -232 233 236 -30 -99 -93 -220 -98 -20 -72 -242 -243 244 -28 -10 247 -44 -247 -32 -119 -196 -147 -204 -39
right_child=2 6 18 5 10 48 14 8 145 46 11 39 -14 57 51 28 -18 55 239 30 21 22 24 -25 52 26 29 -29 45 62 249 -33 -34 146 -36 81 92 66 49 -41 41 -43 74 44 -46 -47 47 -49 -50 50 -52 -53 76 106 -56 169 -58 -59 59 136 95 -63 -64 -65 -66 -67 86 -69 -70 131 108 72 -74 -75 199 85 -78 198 -80 -81 -82 -83 -84 -85 -86 104 87 -89 -90 190 -92 121 93 -95 -96 -97 238 235 -100 100 -102 -103 -104 -105 -106 -107 -108 -109 109 110 -112 -113 132 114 115 -117 117 250 -120 -121 195 -123 123 -125 125 -127 -128 -129 -130 130 -132 -133 -134 134 -136 166 -138 -139 201 -141 141 171 203 174 -146 252 -148 148 149 -151 151 -153 153 -155 -156 -157 157 -159 -160 181 161 222 -164 -165 165 -167 167 168 -170 -171 -172 172 -174 -175 -176 -177 213 -179 228 -181 -182 -183 -184 -185 -186 -187 187 -189 -190 214 -192 -193 -194 194 251 -197 197 -199 -200 200 -202 -203 253 -205 -206 206 207 -209 -210 210 -212 -213 -214 -215 -216 -217 -218 -219 237 220 -222 -223 -224 -225 225 -227 227 -229 -230 -231 231 -233 -234 -235 -236 -237 -238 -239 -240 -241 241 242 -244 -245 -246 248 -248 -249 -250 -251 -252 -253 -254 -255 -256
leaf_value=-3.3199868152513194 -3.3228669420010286 -3.1403087226483213 -3.0386889026449966 -3.3160411577739315 -3.3176932272825308 -3.0440507524441669 -3.1946487946295621 -3.2448047169836944 -3.3115883603087353 -3.3110370728166125 -3.2361311364262129 -3.0869455508375303 -3.031434635269648 -3.275682663768329 -3.0841369628474888 -3.2625461317603612 -3.3099042282008364 -3.3123347370383724 -3.2196513333669978 -3.3003982380806951 -3.1846317518661662 -3.1448130618776333 -3.31397705674891 -3.3136512626587042 -3.2621518780986576 -3.0402527755030881 -3.3115245674258604 -3.2815806985474163 -3.0390240182574444 -3.2156299460176201 -3.0427102899943743 -3.0792524619952419 -3.1044212094422337 -3.230183538329654 -3.3211083793750271 -3.2789454064120793 -3.3007493115794504 -3.3149356745507803 -3.3066087391216117 -3.0364719839780316 -3.3228669420010286 -3.0279652030466555 -3.2989559901939169 -3.2657891860743757 -3.0539859447191002 -3.2245663623495706 -3.1754160725238423 -3.2918246536900417 -3.2638865942101538 -3.3140639050173157 -3.0973538475065081 -3.108392950034212 -3.0463965617313038 -3.3118425779279677 -3.2491415072624354 -3.0626595252765818 -3.078519786867405 -3.059561817934624 -3.2315878323246747 -3.1888206970217681 -3.128852640057362 -3.0407870177838023 -3.045838035710557 -3.2343964203147166 -3.1606709855761235 -3.0425282518839083 -3.2949021219277688 -3.3132296302704933 -3.2874787333265036 -3.2826530685072504 -3.3135296837755601 -3.1703315597832495 -3.0279652030466555 -3.3146294632592861 -3.3111644920425216 -3.3001821928506923 -3.2030631105508145 -3.2826530685072504 -3.1631285000674101 -3.3146752270300737 -3.3228669420010286 -3.058211535247104 -3.027965203046656 -3.1073618250728328 -3.1859482774864984 -3.1328191546748769 -3.2070126874118108 -3.3228669420010286 -3.1486068235279898 -3.1867584470990109 -3.2807381221504039 -3.2353179882489491 -3.2354886489775105 -3.2909856729248799 -3.1754160725238418 -3.2638865942101538 -3.298821823885338 -3.3018025320757163 -3.1601625343020641 -3.3205448810643796 -3.2156299460176201 -3.0792524619952424 -3.0279652030466555 -3.058684134187736 -3.2723123581802787 -3.0841369628474888 -3.1950761884541334 -3.229361512576471 -3.3060154140607785 -3.286004224631732 -3.0574553769420931 -3.1527313233735055 -3.2670747211177686 -3.2936687500253479 -3.1048960914695352 -3.2638865942101538 -3.1403087226483213 -3.1527313233735059 -3.1931101768611043 -3.3060416353179471 -3.2386093022997788 -3.3023657515924358 -3.3123347370383724 -3.1699549292098723 -3.268542937456802 -3.1164357247329675 -3.027965203046656 -3.0323887291309708 -3.2947810621006122 -3.2807381221504039 -3.1016906377852491 -3.1311808116806858 -3.1311808116806863 -3.2014368141962866 -3.1703315597832491 -3.3183299921709613 -3.3038410233588107 -3.1187041996480023 -3.3081218550533098 -3.0869455508375303 -3.1262657826981131 -3.3099042282008364 -3.2409497922914805 -3.0420640909647925 -3.2027217890936912 -3.2142189329125754 -3.0981799027976971 -3.3167574989617035 -3.3107436419036396 -3.1341298290702295 -3.2992748028846788 -3.3012887659799768 -3.2434703199748514 -3.1060274280639897 -3.2335027786815216 -3.0700940228972806 -3.2960576930051761 -3.3228669420010286 -3.1385533551545457 -3.1754160725238423 -3.162011448025916 -3.3063500421614251 -3.2313457126703611 -3.1403087226483217 -3.1508409276109779 -3.3094623175031024 -3.2290345705155463 -3.3105793695445964 -3.1016906377852491 -3.1901611594715606 -3.2424391950134721 -3.2723123581802787 -3.2964578310498904 -3.109317406896138 -3.1459258986284051 -3.0384974080093117 -3.0500828334682333 -3.0371808823889799 -3.2885016987082425 -3.1964804824491542 -3.1413889487983373 -3.3088240020508204 -3.1818269798924157 -3.3161698423140882 -3.2335027786815216 -3.2167023159774542 -3.3049941093371271 -3.156183350418122 -3.2491415072624354 -3.2909856729248799 -3.0553979229493877 -3.0598464721228038 -3.2245663623495706 -3.2912276866071384 -3.1931101768611043 -3.1164357247329675 -3.1931101768611043 -3.3228669420010286 -3.1690051651552684 -3.2008386362268051 -3.3228669420010286 -3.2136440757216311 -3.2217577743595291 -3.1459258986284047 -3.3150819809475505 -3.298872312322326 -3.290812405158162 -3.1016906377852487 -3.2245663623495706 -3.3048117334936178 -3.2187839753112497 -3.3228669420010286 -3.320006578125394 -3.1403087226483217 -3.3126391360257323 -3.1981008216741782 -3.1459258986284047 -3.2873171433325559 -3.3049941093371271 -3.290612064302894 -3.3174393026337698 -3.18675844709901 -3.2424391950134721 -3.2290345705155459 -3.1953418656964345 -3.3146752270300737 -3.2022253215196939 -3.3228669420010286 -3.3157973797658209 -3.2523469609467219 -3.3102407356580015 -3.2654185512956309 -3.2979137179356584 -3.1754160725238418 -3.1217975745321378 -3.2214944692354628 -3.2867998228483355 -3.2105234223993628 -3.2245663623495706 -3.3228669420010286 -3.3073457978455352 -3.2844014977895886 -3.1606709855761235 -3.3080291186574122 -3.1946487946295621 -3.204906246419279 -3.3019384314945892 -3.187703644980274 -3.3088240020508204 -3.1433615356809756 -3.06199232677216 -3.2821908400762871 -3.293376768105591 -3.3094623175031024 -3.305821785780128
leaf_weight=1204.8080961033702 7.8331176526844484 0.71210160478949447 1.8650280125439183 71.786623682826757 7.7313888520002427 3.7300560250878334 0.77992080524563689 1.1529264077544212 30.145634602755312 11.834450479596853 1.1529264077544237 0.67819200456142403 2.8823160193860522 0.84774000570177932 0.7121016047894958 1.4920224100351394 3.0857736207544795 0.94946880638599396 0.67819200456142315 3.5605080239474765 1.0851072072982781 1.7972088120877736 123.73613123223186 2.1702144145965576 2.3058528155088425 1.6276608109474207 0.88164960592985153 1.6954800114035595 2.7127680182456966 1.1190168075263494 0.67819200456142403 0.77992080524563689 0.91555920615792175 1.1868360079824913 2496.3569495901465 1.5937512107193468 4.0691520273685446 325.29479498788714 208.51013180240989 3.5265984237194052 1.7632992118597028 1.2207456082105634 1.2546552084386342 1.0511976070702069 1.152926407754421 1.3224744088947771 0.88164960592985175 1.932847213000058 0.67819200456142326 2.2719432152807708 1.152926407754421 1.1190168075263498 1.085107207298279 7.2566544488072378 0.81383040547370988 1.152926407754421 1.1868360079824922 1.8989376127719877 1.4242032095789903 0.74601120501756701 2.5771296173334126 0.77992080524563778 1.1190168075263498 0.67819200456142503 0.67819200456142326 2.7466776184737682 3.9335136264562598 10.376337669789789 0.84774000570178032 0.74601120501756668 12.851738486438995 0.98337840661406506 0.94946880638599385 6.0698184408247453 21.363048143684868 2.6449488177895546 1.0851072072982777 0.74601120501756668 0.81383040547370988 2.4414912164211273 0.9494688063859934 1.3224744088947771 0.71210160478949536 0.88164960592985142 0.94946880638599473 1.5259320102632044 0.94946880638599418 0.77992080524563778 0.74601120501756657 0.88164960592985631 0.71210160478949536 2.1702144145965567 0.91555920615792297 1.2546552084386347 0.67819200456142326 0.67819200456142414 64.462150033563375 1.4242032095789909 0.98337840661406506 60.291269205510616 1.1190168075263489 0.77992080524563789 1.2885648086667059 1.627660810947418 2.3736720159649849 0.71210160478949536 1.0172880068421353 1.3902936093509186 2.3736720159649849 1.627660810947418 0.67819200456142414 0.88164960592985142 1.2546552084386347 10.274608869105576 0.77992080524563689 1.1868360079824922 0.71210160478949525 0.88164960592985175 0.84774000570177932 32.688854619860649 0.71210160478949436 6.3410952426493159 5.6968128383159637 0.91555920615792263 1.2885648086667054 1.0172880068421362 0.71210160478949547 20.345760136842728 0.71210160478949547 0.71210160478949525 0.67819200456142426 0.67819200456142315 0.67819200456142414 1.1529264077544201 0.98337840661406417 4.4082480296492559 3.1535928212106228 0.88164960592985653 1.3563840091228487 0.67819200456142414 0.81383040547370722 3.0857736207544804 2.4414912164211278 8.5113096572458691 0.91555920615792263 1.2885648086667054 0.71210160478949536 1486.2238683961332 101.45752388238907 0.84774000570177932 0.84774000570178065 2.7805872187018386 0.88164960592985164 1.1529264077544212 1.1190168075263489 0.71210160478949547 0.74601120501756679 1.5259320102632044 1.0851072072982797 0.67819200456142403 1.1190168075263489 33.299227423965931 0.98337840661406417 0.71210160478949536 0.81383040547370911 0.74601120501756646 0.74601120501756657 0.81383040547370888 0.81383040547370911 0.67819200456142414 1.4920224100351323 1.1868360079824927 2.2719432152807713 0.98337840661406506 0.67819200456142503 4.7473440319299689 2.7127680182456975 1.0851072072982786 12.512642484158279 0.94946880638599329 0.88164960592985142 0.71210160478949547 0.77992080524563867 436.00963973253965 1.1190168075263489 0.84774000570177932 1.1190168075263507 0.77992080524563778 0.67819200456142414 2.5093104168772702 7.2905640490353081 1.2546552084386347 1.2207456082105625 16.751342512667179 0.84774000570177921 0.67819200456142426 0.84774000570177976 1.152926407754421 0.77992080524563678 0.98337840661406517 0.84774000570177921 0.91555920615792263 1.1868360079824922 0.67819200456142414 53.9501739628613 12.919557686895134 1.559841610491276 0.67819200456142326 0.71210160478949447 3.323140822350978 1.152926407754421 1.8650280125439169 562.86545418575406 0.71210160478949536 5.866360839456318 0.88164960592985142 0.67819200456142414 12.377004083245994 1.1190168075263489 2.1702144145965581 5.5272648371756059 1.3224744088947771 1.1190168075263489 0.74601120501756568 1.254655208438634 1.2207456082105637 0.74601120501756557 0.81383040547370911 9.9016032665967924 1.5598416104912751 68.904307663440704 2.6110392175614825 4.4082480296492577 0.88164960592985142 0.74601120501756657 1.0851072072982788 4.713434431701903 0.71210160478949536 0.71210160478949447 0.77992080524563789 2.5771296173334122 0.77992080524563678 0.67819200456142426 10.783252872526642 0.77992080524563856 0.67819200456142315 10.511976070702076 0.813830405473709 0.71210160478949547 0.77992080524563789 0.88164960592985153 0.98337840661406517 1.0172880068421362 0.74601120501756657 48.694185927510262
leaf_count=35530 231 21 55 2117 228 110 23 34 889 349 34 20 85 25 21 44 91 28 20 105 32 53 3649 64 68 48 26 50 80 33 20 23 27 35 73618 47 120 9593 6149 104 52 36 37 31 34 39 26 57 20 67 34 33 32 214 24 34 35 56 42 22 76 23 33 20 20 81 116 306 25 22 379 29 28 179 630 78 32 22 24 72 28 39 21 26 28 45 28 23 22 26 21 64 27 37 20 20 1901 42 29 1778 33 23 38 48 70 21 30 41 70 48 20 26 37 303 23 35 21 26 25 964 21 187 168 27 38 30 21 600 21 21 20 20 20 34 29 130 93 26 40 20 24 91 72 251 27 38 21 43829 2992 25 25 82 26 34 33 21 22 45 32 20 33 982 29 21 24 22 22 24 24 20 44 35 67 29 20 140 80 32 369 28 26 21 23 12858 33 25 33 23 20 74 215 37 36 494 25 20 25 34 23 29 25 27 35 20 1591 381 46 20 21 98 34 55 16599 21 173 26 20 365 33 64 163 39 33 22 37 36 22 24 292 46 2032 77 130 26 22 32 139 21 21 23 76 23 20 318 23 20 310 24 21 23 26 29 30 22 1436
internal_value=-3.3125 -3.31442 -3.14181 -3.31507 -3.31594 -3.27435 -3.22421 -3.28056 -3.25323 -3.21369 -3.29627 -3.21717 -3.21318 -3.26021 -3.14581 -3.22672 -3.16374 -3.31734 -3.07125 -3.1438 -3.31741 -3.30881 -3.31002 -3.16625 -3.31104 -3.29903 -3.24717 -3.11604 -3.19018 -3.26653 -3.24117 -3.3075 -3.30976 -3.31178 -3.31837 -3.06393 -3.21507 -3.31662 -3.30112 -3.08536 -3.27372 -3.20944 -3.31214 -3.0543 -3.155 -3.10856 -3.28226 -3.20944 -3.09288 -3.30329 -3.2366 -3.23482 -3.19552 -3.27234 -3.09839 -3.18346 -3.19324 -3.14256 -3.28242 -3.23931 -3.18231 -3.16407 -3.13073 -3.08562 -3.31372 -3.08277 -3.30942 -3.28157 -3.19835 -3.31218 -3.30406 -3.30576 -3.26289 -3.29451 -3.28942 -3.27117 -3.12473 -3.31766 -3.28658 -3.25825 -3.21993 -3.14105 -3.17542 -3.21783 -3.07543 -3.24112 -3.26012 -3.20409 -3.26389 -3.09026 -3.12685 -3.26684 -3.26588 -3.21779 -3.04774 -3.14313 -3.31007 -3.22055 -3.06828 -3.30664 -3.31863 -3.16362 -3.10472 -3.13173 -3.21887 -3.1781 -3.28956 -3.31388 -3.28375 -3.24555 -3.20051 -3.23918 -3.18298 -3.3044 -3.29145 -3.20084 -3.18161 -3.15659 -3.29529 -3.29719 -3.27475 -3.27102 -3.3177 -3.28406 -3.25799 -3.20144 -3.10953 -3.04514 -3.21754 -3.12693 -3.1934 -3.21052 -3.21939 -3.29143 -3.27001 -3.28001 -3.28184 -3.19016 -3.22586 -3.19103 -3.28532 -3.25933 -3.19156 -3.06531 -3.10442 -3.30514 -3.18068 -3.31778 -3.31666 -3.30542 -3.30675 -3.25223 -3.20491 -3.16559 -3.31725 -3.14833 -3.29917 -3.25733 -3.20272 -3.31094 -3.31194 -3.29834 -3.31729 -3.22305 -3.2785 -3.2267 -3.29049 -3.26153 -3.20614 -3.10988 -3.30975 -3.27372 -3.24858 -3.19846 -3.04973 -3.06371 -3.09218 -3.10169 -3.31733 -3.25441 -3.07165 -3.24375 -3.26806 -3.31406 -3.29939 -3.29567 -3.29359 -3.24388 -3.1734 -3.3198 -3.06828 -3.11222 -3.28633 -3.30977 -3.304 -3.17901 -3.31752 -3.26789 -3.22457 -3.30691 -3.25733 -3.27005 -3.30001 -3.22029 -3.30663 -3.30462 -3.2843 -3.2335 -3.30633 -3.31408 -3.28265 -3.29606 -3.31757 -3.06884 -3.29586 -3.26684 -3.07148 -3.299 -3.31664 -3.31323 -3.29182 -3.25129 -3.30268 -3.30466 -3.29169 -3.25419 -3.3167 -3.26517 -3.30056 -3.28977 -3.30531 -3.3086 -3.27358 -3.25977 -3.05688 -3.26707 -3.27057 -3.26826 -3.29801 -3.27486 -3.3051 -3.27826 -3.22685 -3.30117 -3.25666 -3.30923 -3.29425 -3.25518 -3.25813 -3.09655 -3.10736 -3.24095 -3.24914 -3.25561 -3.31375
internal_weight=0 7845.56 83.6211 7789.2 7626.17 163.037 56.3578 157.646 78.2634 44.4216 507.559 17.1243 41.5732 38.623 17.7347 38.6909 25.7035 7118.61 42.0479 22.6177 7114.88 715.899 709.897 6.002 703.726 490.435 19.0233 17.5991 23.3637 17.3956 5.01862 79.3824 78.6025 699.25 6398.98 40.5898 17.9043 3902.62 471.411 5.05253 34.5878 5.2899 697.351 36.0798 2.20412 5.45945 18.7181 3.5266 5.39163 436.823 4.98471 7.15493 4.47607 12.0718 15.9036 3.73006 6.17155 5.93418 15.3271 6.10373 10.885 2.20412 2.23803 10.5798 651.912 3.83178 490.841 32.6889 1.52593 77.6869 431.839 398.607 8.00267 7.0532 45.4389 22.2447 2.17021 3411.78 15.1576 6.03591 3.59442 4.50998 3.1875 2.4754 9.9016 9.66424 6.375 2.44149 4.06915 15.0898 5.6629 22.3125 7.01929 2.95014 33.8757 5.73072 484.466 4.98471 4.71343 390.605 61.4103 1.69548 4.9508 3.66224 7.01929 1.86503 10.2068 651.234 33.2314 5.56117 3.1875 2.50931 2.64495 329.194 48.389 1.96676 4.03524 3.1875 46.4222 45.5745 12.8856 21.6004 3410.25 7.73139 15.2593 2.30585 1.59375 33.1975 1.4242 5.05253 1.39029 1.4242 1.93285 27.6702 10.7833 9.79987 3.8996 2.03458 5.15426 2.88232 29.2979 8.34176 4.64562 12.8517 3.66224 33.8418 1.89894 3402.52 2188.46 109.46 108.612 5.6629 2.88232 2.03458 2079 1.66157 15.1915 3.35705 1.83112 9.22341 419.292 36.2833 2077.88 2.20412 3.83178 1.55984 8.64695 4.2387 1.62766 1.83112 102.95 7.52793 4.44216 2.17021 9.1895 8.95213 4.20479 3.66224 2076.9 1.89894 2.74668 1.39029 12.9535 649.844 6.81583 20.9561 14.3438 1.89894 2.4754 1214.07 9.42687 2.1363 11.4954 213.834 90.0978 1.39029 2054.48 2.00067 1.52593 23.1942 1.83112 2.27194 9.1895 3.11968 280.805 226.855 17.633 2.23803 209.222 76.2627 4.47607 2.61104 2052.48 3.42487 9.25732 3.39096 4.13697 20.1084 1489.61 383.009 9.01995 3.49269 35.1643 34.0452 15.395 2.4754 1487.78 1.55984 22.4142 3.32314 88.2667 71.5153 12.1735 7.7653 3.45878 2.50931 6.88365 1.83112 65.1743 1.45811 16.887 4.03524 1.45811 12.4448 1.66157 31.5359 12.5805 2.06849 1.39029 1.45811 1.7633 1.83112 2.30585 1.93285 373.989
internal_count=233833 231367 2466 229705 224897 4808 1662 4649 2308 1310 14968 505 1226 1139 523 1141 758 209929 1240 667 209819 21112 20935 177 20753 14463 561 519 689 513 148 2341 2318 20621 188707 1197 528 115089 13902 149 1020 156 20565 1064 65 161 552 104 159 12882 147 211 132 356 469 110 182 175 452 180 321 65 66 312 19225 113 14475 964 45 2291 12735 11755 236 208 1340 656 64 100614 447 178 106 133 94 73 292 285 188 72 120 445 167 658 207 87 999 169 14287 147 139 11519 1811 50 146 108 207 55 301 19205 980 164 94 74 78 9708 1427 58 119 94 1369 1344 380 637 100569 228 450 68 47 979 42 149 41 42 57 816 318 289 115 60 152 85 864 246 137 379 108 998 56 100341 64538 3228 3203 167 85 60 61310 49 448 99 54 272 12365 1070 61277 65 113 46 255 125 48 54 3036 222 131 64 271 264 124 108 61248 56 81 41 382 19164 201 618 423 56 73 35803 278 63 339 6306 2657 41 60587 59 45 684 54 67 271 92 8281 6690 520 66 6170 2249 132 77 60528 101 273 100 122 593 43929 11295 266 103 1037 1004 454 73 43875 46 661 98 2603 2109 359 229 102 74 203 54 1922 43 498 119 43 367 49 930 371 61 41 43 52 54 68 57 11029
shrinkage=1


Tree=1
num_leaves=256
num_cat=0
split_feature=297 14 23 24 11 11 11 334 24 228 101 8 18 362 226 51 335 11 24 320 4 126 351 366 193 23 263 11 301 3 126 228 126 4 320 23 20 199 421 12 22 0 14 333 5 12 351 25 114 1 106 4 25 353 385 188 12 109 126 22 12 197 520 12 320 34 9 100 385 23 211 0 23 11 23 470 0 30 89 23 0 182 188 12 172 0 301 237 11 9 347 11 117 347 22 28 26 4 76 12 260 380 302 346 154 25 4 54 5 23 18 22 94 23 11 320 94 517 173 1 3 316 227 25 21 204 340 445 11 141 0 0 91 15 346 25 385 275 135 9 115 0 3 98 257 346 106 353 145 176 4 5 470 297 304 14 274 228 0 95 0 112 1 324 343 226 14 11 162 3 26 4 21 170 11 101 382 302 470 302 0 0 303 254 216 321 26 0 8 21 4 384 353 296 10 76 22 333 23 0 346 12 200 26 269 23 25 115 19 3 11 382 23 21 23 269 0 23 172 93 0 52 169 320 115 0 311 246 35 4 0 220 29 346 117 19 21 167 117 319 175 0 0 4 4 11 342 11 23 21 0 20 12 4 19
split_gain=20520.5 4354.43 2708.7 2634.05 3019.4 2566.74 2518.45 2014.22 1524.09 1355.42 1012.32 752.466 632.501 569.848 504.951 499.785 659.358 463.605 673.896 428.607 382.78 399.01 334.366 332.636 325.748 314.219 312.258 292.024 286.686 277.711 260.2 245.754 244.701 240.601 229.946 214.63 205.69 203.399 189.957 186.913 185.52 182.8 291.595 181.503 178.587 176.455 173.211 284.644 179.482 179.741 175.475 288.022 465.6 209.904 211.372 184.111 160.241 157.785 161.181 157.389 162.894 153.55 152.549 151.59 150.767 205.384 157.158 147.986 141.647 140.778 138.052 134.775 134.473 393.658 133.042 130.064 128.068 126.38 124.612 297.457 124.256 119.475 119.037 137.503 118.326 117.582 113.925 111.786 111.544 111.502 108.873 102.116 97.9689 95.1596 172.651 254.287 95.6182 94.454 94.4165 94.4145 93.815 91.8487 106.445 89.0304 88.6324 88.5535 87.2834 569.839 371.862 83.8983 141.372 82.3876 182.314 97.9283 188.456 81.1518 100.381 79.8631 76.7637 76.2984 76.2341 76.0846 83.8664 75.4755 74.2752 73.835 72.9116 142.773 72.5749 72.0727 76.6046 87.5793 71.1467 68.4732 78.0785 96.3465 68.9637 67.4784 67.3192 66.7185 176.586 66.5933 94.4528 66.4581 102.778 65.5963 65.5546 106.085 65.4487 65.282 65.2671 65.0373 85.7085 85.572 64.8848 104.63 64.6219 64.4815 63.0884 62.8304 62.3339 76.9509 70.436 156.166 62.1418 61.9654 61.4531 60.599 59.6133 58.2437 58.1646 57.1069 88.2389 54.1486 60.6147 54.1395 53.1486 52.3253 71.9383 54.0708 52.2138 51.6151 51.4204 51.226 85.9648 51.1661 201.805 106.346 51.144 49.5952 46.5178 47.715 46.2541 45.9365 56.1336 45.5083 45.161 44.6488 94.1982 58.5131 43.6911 68.2276 43.2607 42.9988 42.9353 42.8445 61.0203 86.9426 154.092 81.3179 52.4795 115.86 85.104 166.402 42.738 42.7166 51.4818 42.6451 86.7342 42.5854 42.3507 42.0169 90.9715 41.877 41.7155 41.6747 76.5392 44.1114 39.685 39.4306 39.3693 39.3661 39.2949 39.2152 39.1474 38.7472 38.2239 37.9844 37.839 38.373 55.79 37.0926 37.0266 36.8767 119.125 36.499 36.4622 36.386 128.743 112.407 50.7338 36.3376 36.2604 36.0842 81.382
threshold=1.8629229604326545 -0.020024106153635843 -0.1385042694084935 -0.15065085365848629 -0.086472585946284028 -0.073585305543157786 -0.073585305543157786 1.0000000180025095e-35 -0.15065085365848629 2.1793381651012855 3.2854842384013363 -0.3700798019526399 -0.055145084819120491 1.0974662139217894 0.17670366567584878 2.0549974754814588 1.788104570209802 -0.015592543729089711 -0.13246166138392168 6.5814692270857593 -1.5633434900395171 0.94236504756048201 0.15262071703915311 1.0000000180025095e-35 4.0820953416842434 -0.22551364710577654 1.3361537176607878 -0.041367104535342196 6.091466166398388 -1.0000000180025095e-35 4.1890804162900208 3.9431017970849198 0.94236504756048201 1.1867779435127344 2.7217705812152495 -0.19651052120668219 0.023050183465512672 -0.13672491244819787 1.0000000180025095e-35 -0.088382467329123596 -0.010195775399481006 -0.72702753657641328 -0.058160732169147029 0.19441397786183334 2.3106670835688088 -0.055103557320636744 5.2422935817986422 2.944498268548617 -1.0000000180025095e-35 0.061987871432271115 1.5522985917444962 -1.287718847478601 -0.48756965695349591 0.27850491253886256 1.0000000180025095e-35 6.5334705449964341 -0.082835982327709126 1.0000000180025095e-35 4.1890804162900208 0.61805141836910671 7.1137283070075776 3.3787610747008343 1.0000000180025095e-35 -0.077289497326294643 2.7217705812152495 2.5361416836655244 -0.070859974332108611 1.0000000180025095e-35 1.0000000180025095e-35 -0.21826286563100297 1.0000000180025095e-35 1.5015971762890306 -0.051494891711210501 -0.041367104535342196 -0.19651052120668219 1.0000000180025095e-35 -1.0000000180025095e-35 1.3409777790790918 1.0000000180025095e-35 -0.23276442858055013 0.27085675803719644 0.27317203935050721 3.7860328094477347 -0.082835982327709126 -0.087475001050430809 0.79862331834705136 2.3487727117437949 2.5650850391146478 4.849355808451068 0.60167972978082263 -0.15532094599306892 -0.086472585946284028 4.6697745713655339 1.731625731150219 -0.048857141169855622 0.93174598498614414 -0.5479819271456291 -0.22809522163330168 0.9078169131948125 -0.071743012324880159 1.3666712659442652 1.0000000180025095e-35 1.3937926423307447 -0.058313091788270301 1.0000000180025095e-35 -0.38780024051448109 -1.8849055730272524 1.0000000180025095e-35 -0.26449653586503019 -0.17475817678236144 0.19233236342391757 -0.039191799727261965 1.0000000180025095e-35 -0.22551364710577654 -0.080028945744720914 4.6516199041505049 1.1178529502844547 1.0000000180025095e-35 -0.043587899307623752 -0.05139489830759978 -0.48172048361436776 -0.0098080537701988324 6.2186837438603755 -0.56073389567544007 -0.092141464723422092 0.075995589212111955 1.0000000180025095e-35 1.0000000180025095e-35 -0.080028945744720914 0.40627006526351778 1.2974970188215111 1.1769227382794303 3.5457654664426568 -0.19338852556478811 0.16939106382491675 -0.41440541823155169 1.0000000180025095e-35 1.0000000180025095e-35 1.8074310027176965 3.1073002127869258 1.9293201500875676 0.8259647166492895 0.53775370693978553 1.0000000180025095e-35 0.41546618975040644 0.88968842777239554 1.5522985917444962 0.81021277591649499 3.0168738487790963 4.2759244765320279 -0.36897003894221431 2.3106670835688088 1.0000000180025095e-35 1.0076771029297193 0.041918448980412033 -0.0073118974817987853 5.0903293723908805 2.1793381651012855 -0.24626943106263852 0.87776809710518622 1.3792930576204085 1.0000000180025095e-35 -1.2727417015113063 0.76146797711303316 6.3055589661969815 0.35403666876578338 -0.045448523497309969 -0.092916226147847156 1.0000000180025095e-35 -0.4097684058948084 -0.49346074041335197 -0.21584523751948317 -0.092141464723422092 3.3313199741512824 -0.086472585946284028 1.4163053297994128 1.0000000180025095e-35 0.48253865545509772 1.0000000180025095e-35 1.0000000180025095e-35 -0.21913129911100113 0.18964562853288494 0.22836398943859379 0.053992143122867688 1.0000000180025095e-35 2.8991128000409661 -0.55479707548716373 0.027152848545482108 -0.62180958635570593 -0.055443738953585765 1.2909028084801915 1.0000000180025095e-35 0.70768552386431904 2.6438738308873959 -0.10429744185060115 0.9078169131948125 -0.048857141169855622 0.41166023514853628 -0.11675192498417276 -0.71343772913624759 -0.12362244143411232 -0.06619652732346569 5.1606278893102315 -0.53435163046255985 0.95071788354433739 -0.087748799085078419 1.9201989264413968 -1.0000000180025095e-35 -0.16904573966017186 0.53111982743372688 -0.086472585946284028 1.0000000180025095e-35 -0.21826286563100297 -0.073792601838503932 -0.21826286563100297 2.6026676768159809 -0.12294483234814317 -0.21826286563100297 0.90437006376982165 3.7265778645078167 -0.41308473221995973 1.8988158659385739 0.61262291911312505 4.6516199041505049 3.7978570678257886 -0.65798335005806219 5.4349974907389367 0.11785027372603261 -0.44520607757052394 -0.38122002305603281 0.24385137145737992 4.6331840478711985 -0.14227969575580665 -0.017447017434029547 2.0376519418300081 -0.16904573966017186 -0.092141464723422092 -0.04001680725654997 2.0376519418300081 0.35671689352305097 0.51722902488887479 0.78466846113437805 0.61926772784552353 1.1439029991143694 0.86215336449654412 -0.080028945744720914 2.0607805439555174 0.042400218084978382 -0.21101208415622938 -0.055443738953585765 1.6232790510272423 -0.056245140046982875 -0.082835982327709126 1.3521527290492839 -0.16904573966017186
decision_type=2 2 2 2 2 2 2 2 2 2 2 2 2 2 2 2 2 2 2 2 2 2 2 2 2 2 2 2 2 2 2 2 2 2 2 2 2 2 2 2 2 2 2 2 2 2 2 2 2 2 2 2 2 2 2 2 2 2 2 2 2 2 2 2 2 2 2 2 2 2 2 2 2 2 2 2 2 2 2 2 2 2 2 2 2 2 2 2 2 2 2 2 2 2 2 2 2 2 2 2 2 2 2 2 2 2 2 2 2 2 2 2 2 2 2 2 2 2 2 2 2 2 2 2 2 2 2 2 2 2 2 2 2 2 2 2 2 2 2 2 2 2 2 2 2 2 2 2 2 2 2 2 2 2 2 2 2 2 2 2 2 2 2 2 2 2 2 2 2 2 2 2 2 2 2 2 2 2 2 2 2 2 2 2 2 2 2 2 2 2 2 2 2 2 2 2 2 2 2 2 2 2 2 2 2 2 2 2 2 2 2 2 2 2 2 2 2 2 2 2 2 2 2 2 2 2 2 2 2 2 2 2 2 2 2 2 2 2 2 2 2 2 2 2 2 2 2 2 2 2 2 2 2 2 2
left_child=1 3 5 4 9 69 8 14 13 11 15 20 196 26 22 30 33 18 241 35 -1 67 57 70 41 68 165 37 61 -21 38 44 72 89 -35 43 74 87 46 -11 -38 -13 133 146 -10 86 50 48 -48 -50 53 52 175 55 64 205 128 58 82 -34 -61 93 123 120 65 92 117 78 103 99 88 171 73 -4 157 100 -75 125 188 105 97 183 84 -84 106 180 234 118 154 -17 151 -39 139 96 -95 -96 233 -45 214 -3 158 190 129 -24 -37 -80 107 -5 -109 -19 -111 224 -113 114 -114 169 -117 -66 -16 -15 -51 122 -72 -32 141 -58 160 -128 168 130 131 177 195 134 136 235 -43 -121 -97 149 -141 202 -143 197 -145 -31 159 -148 164 170 -144 -69 153 -153 155 -8 -123 189 251 -12 162 -162 163 -119 185 182 -89 -122 -14 -68 253 172 -46 -172 -175 -52 -78 178 179 220 -56 -110 193 184 -41 200 -187 -188 204 -20 191 -44 -126 -2 -195 -74 252 238 199 -199 201 -53 -105 -197 243 206 210 -208 209 -209 221 212 213 237 -60 216 -173 218 -164 -98 -103 -9 -223 -214 225 -108 227 -227 -152 -62 -160 -185 -116 -27 -33 -136 -154 245 239 -86 -241 -7 -138 244 -22 -212 -235 248 250 -250 -156 -23 -6 -55 -255
right_child=6 2 32 7 12 17 23 10 31 39 19 24 56 119 27 16 -18 109 36 29 21 75 25 -25 -26 28 -28 -29 -30 145 62 45 59 34 -36 104 40 91 -40 81 -42 42 101 80 71 -47 47 -49 49 63 51 148 -54 54 85 -57 77 -59 98 60 229 -63 -64 -65 66 -67 115 90 -70 -71 121 -73 132 76 -76 -77 176 -79 79 -81 -82 -83 83 -85 143 -87 -88 166 -90 -91 -92 -93 -94 94 95 138 219 -99 -100 -101 -102 102 -104 124 -106 -107 111 108 181 110 -112 112 113 -115 232 116 -118 126 -120 137 167 156 -124 -125 192 -127 127 -129 -130 -131 -132 -133 -134 -135 135 -137 242 -139 -140 140 -142 142 150 144 -146 -147 147 -149 -150 -151 228 152 236 -155 247 -157 -158 -159 230 -161 161 -163 217 -165 -166 -167 -168 -169 -170 -171 173 215 -174 174 -176 -177 -178 -179 -180 -181 -182 -183 -184 231 -186 186 187 -189 -190 -191 -192 -193 -194 194 -196 203 -198 198 -200 -201 -202 -203 -204 -205 -206 -207 207 208 -210 -211 211 -213 223 -215 -216 -217 -218 -219 -220 -221 -222 222 -224 -225 -226 226 -228 -229 -230 -231 -232 -233 -234 246 -236 -237 -238 -239 -240 240 -242 -243 -244 -245 -246 -247 -248 -249 249 -251 -252 -253 -254 254 -256
leaf_value=0.20265538736055799 0.10834620828575947 0.16976334381246413 -0.010366551007650215 -0.0037537875636807294 -0.00062923710151065561 0.22571004930761576 0.066380892987063095 -0.0017690041108262388 0.00032336208821681959 0.017718724373630354 0.077380664720761175 -0.0037906312226349825 0.0031805808742164732 0.00011726784434046193 0.010767517632716985 0.0070148242276106207 0.21054751988953579 0.21361970683880654 0.00038102810185003681 0.0014242794184821865 0.01787924236378112 0.037719100023740008 0.0096127532148066047 0.0096598823846910584 0.16927707249241014 0.0030262655356133915 0.0007948157890702726 0.17830913242936816 0.19858012328368463 0.12214503434467 0.090736053165313163 0.14151357064039671 -0.010382654149108793 0.022704417907379169 0.19009701751005623 0.00010264362731591399 0.22622093937402624 0.027635481559422807 0.1438929215885062 0.070954519182373513 0.061645560284133691 0.0043692744292504818 0.031428344138859129 0.098056207468196335 0.031227988945016636 -0.0011841797527604374 -0.0027328152452498126 0.20102056440687846 0.017918922091790048 -0.010369664341330383 0.00023340922768670387 0.013531206911902053 0.20371517601535089 0.010454547823542739 0.11331251472456445 0.16429459173142408 0.22045483580809769 -0.0089281358026857133 0.072366771741844305 0.18984657627243856 0.0023985099031878752 0.11645027878578666 -0.010369312894712856 0.22998692495699094 0.0038305197124084761 0.13062127690453801 0.095772039596141723 -0.0059552049875414561 0.14730569537448285 -0.0078244057053854406 0.035016405316794244 0.14939739723162671 0.00028901587683203834 0.034635844362347269 -0.010377798035203816 0.034488356818695588 0.1289091223014808 0.092633839902235116 0.21927442384005236 0.021245503068555764 0.036871252137744615 0.066675293040798569 0.010505987084245043 0.14618980648245133 0.00061536706089874635 0.19732243411800501 0.22968555391101914 0.039684566000105836 0.0959996686470551 0.10496594955615252 0.00019469857885899604 0.17015912314168921 0.10951496336130152 0.0060758748398204278 0.0021093138496751105 0.11408121045238648 -0.0038622945100136728 0.2188747854702377 0.1440700614308873 0.025873849168944193 0.027643562703490838 0.0074334077394870961 0.13845226000597527 0.014596207664791791 0.12011201219578597 0.093786230162349465 -0.0079623897555799079 -0.010369941758945065 0.11669792565066299 0.059092208897113613 0.19731018754959384 0.14162109062667158 0.010741492095631777 -0.0032129106515292661 0.15013947556325544 0.076163172039744029 0.22025464472428907 0.0062092951324650711 0.093824824588728761 0.032600720031586997 0.16671565136887481 0.22743972904527637 0.16758991710010793 0.22323715025800706 0.16161083940948776 0.11867332567073165 0.042437159775155768 0.19538333815643835 0.18363875737585125 0.0019311718300640537 0.0055749687273611293 0.13573965096541094 0.062859534446219487 -0.0077730721502007848 0.015227363922477366 0.13612940894261824 0.019553944448691112 0.15624491076152644 0.2483153845253438 0.012351138510246091 0.17036504365648938 0.02739308297140532 0.029556636621486315 0.12222011018015792 -0.0033259381708152414 0.22227100886672002 0.15568071106021894 0.0032277458884778071 0.10827517399473938 0.098526674051851948 0.097156625908352973 0.04281257791833569 0.013214187613284259 0.15222719663126047 0.20595423899704304 0.21360603949310047 0.10888117644690395 0.15987154693910938 0.21155286839293941 -0.010369131828585773 0.13546928517549969 0.011396486576688512 0.015885350256445784 0.19010490208643854 0.094564480694125971 0.22283708619260689 0.12803282630623813 0.045277552022304358 0.13189129476613562 0.003619898971771277 -0.0027780100937072351 -0.00030443933182473245 0.14231643775021902 0.1093798053637154 -0.010366010483470762 0.076658671622232305 0.2262059820888013 0.090875924100109168 0.1094652777413158 0.0076474050383537277 0.0088957156218677433 0.20879121381834873 0.20481482748074314 0.22621531553973362 0.18468505284798256 0.0098948483591702902 0.18883852000404189 0.052845498518222844 0.11166530438685618 0.095792212796336887 -0.0040209035366759287 0.0024163776664549363 0.061777876612195748 0.19510573966917286 0.11175422359420831 0.078914081492510224 0.10607825693901449 0.16192257580477257 -0.0060922838696048399 0.044608196006893655 0.0040183693088158175 0.13054200830952559 0.091041064047868173 -0.01036916522549435 0.09144785714198729 -0.0059052895478962208 0.0056128382383532479 0.18871836743801176 0.00098495928692712018 0.048469229154835008 0.026252466157065953 0.13225785132655354 0.00065068678108246112 0.17337215914322912 -0.0041829082567749728 -0.00072478961831346227 0.093211521444345385 -0.0048074885885340006 0.11351887334671772 0.063011047819356736 0.05546423437467661 0.0079687649184414216 0.13755325792320722 0.058033841381865313 0.066714698689914864 -0.0057322573807870513 0.075296439375940619 0.072191369290944676 0.19375077944219193 0.088932222538442823 0.13729916871453082 0.14399761580910325 0.057218003281898126 0.016152014298618341 0.054636041580064902 0.079640288225498526 0.088229298731954731 0.00037002800561109037 0.059079158850915796 0.11602056327771555 -0.00019923570277182901 0.16207281822389799 0.10465953149408959 -0.0042724811620365993 0.15876337391603956 0.096017914938789778 0.089128312283503 0.2150807468836739 0.035514914784013085 0.17869527949230984 0.13625006733252204 0.11656173251417734 0.070149168704170733 0.0093020155634911898 0.1366321061545967
leaf_weight=1.4077148362994183 1.3473139628767947 0.77714056521654118 4.3968054130673409 42.364216007292271 2.0535264201462269 4.3613268658518782 0.91126976907253165 173.32438105344772 12.149897091090683 1.0674657672643659 1.3671956658363345 126.28917025774717 0.73744025453925155 1.9076070189476015 33.112776294350624 10.928960155695679 2.5791223049163809 14.101978693157433 0.92857989296317156 0.84695349633693684 3.8942385986447317 0.83139314502477679 21.522200524806976 0.99680100381374259 1.22429709881544 50.030794896185398 0.89550351724028665 1.2714515551924694 0.71764509007334609 0.82983116433024351 0.79108513519167911 1.1847358830273158 1.3795215189456929 1.5117479190230363 1.7951003536581991 5.7280843444168577 1.3520038425922396 0.78936784341931376 1.0370718427002419 0.98340719193219994 1.3882835358381269 113.35413322597742 20.577148865908388 1.0141252353787429 1.6816905699670317 1.0875510349869717 7.8585213683545581 1.0401995256543148 3.5343794897198668 0.68639295175671633 2.8288477547466755 1.6737285219132902 2.2411753833293906 48.502165883779526 0.88913101702928554 0.68674169108271499 8.9221118688583303 2233.0375053286552 1.3291969299316411 1.6476260982453821 0.78232113644480694 1.103517174720763 0.72083302959799755 0.91519325971603382 14.083118058741091 1.347474519163369 1.3189331963658335 4.5367511548101893 0.95114817470312019 11.804045006632803 1.1005153395235532 1.3764734193682677 43.168902684003115 0.88810517638921771 2.8998472131788722 2.6748004518449306 1.148237168788909 0.9704766161739834 1.6109203584492209 2.5281848087906829 0.84613007679581631 1.1677352972328661 2.3945383578538899 1.0854565426707257 97.454842112958431 0.8665708303451537 1.0827631391584871 1.9961482807993882 1.0336731448769558 1.3004353940486897 17.046131167560816 1.3843260817229737 0.91758359223604102 12.161952313035725 1.6008306741714471 0.72304312139749505 529.18803387507796 1.78778925165534 0.9710162729024886 1.1035890877246846 1.0515767633914945 2.2472573928535118 1.0750780254602421 12.017062157392505 0.68948280811309803 0.86391901969909657 1237.7153784148395 1.5454768724739549 0.86512013152241651 1.0069319531321554 2.7914861366152763 0.92080222442746062 19.899145312607292 116.05451520159841 1.1835790425539015 1.2709990069270136 0.78029573708772648 1.2062413468957007 1.1514506191015232 0.93010209500789531 0.95981000363826796 1.1769627816975115 0.84244831278920163 0.94158588349819106 0.69772261008620207 0.774607043713332 2.8396947793662544 0.77743044495582569 0.82444918155670244 4.8788806311786166 4.3912516869604579 1.1635253280401219 2.0478108562529078 38.631498619914055 5.8602321073412895 0.88728947192430396 1.0024731233716004 0.84002036973834038 0.77304768934845924 3.520660337060689 0.88502342626452435 3.7073959484696379 0.75143202766776118 1.206458114087581 1.4190181158483026 3.093531746417284 1.204355292022228 0.7349974401295184 0.75827579200267692 0.73442285135388274 0.9299952946603296 22.754258077591661 15.692984580993652 0.73797635734081168 24.488472811877731 1.0264379121363161 0.75443861261010159 0.82196506485342968 0.94609099626540993 2.0238741002976894 1.0970068685710423 0.9183312989771365 6.8560876250267055 0.74824039265513409 0.95286238193511863 4.7577321156859407 1.3000898994505403 0.71854601800441698 0.7027679830789566 1.4289273843169201 75.116253603249788 0.99221031740307841 1.2439218647778023 0.91847958788275719 0.78317557647824176 1.3786526173353193 1.0985742919147015 2.3704691380262366 1.4183070249855507 4.9964944943785659 1.0379628725349894 2.0523432083427906 4.4130923263728619 2.3240547850728039 2.0501467436552048 8.8812943026423437 1.0540337972342961 1.2653159648180006 0.81945477798581023 1.3182060196995726 7.8833288215100756 7.8245615698397151 1.3859603032469747 3.3568624034523964 1.0640897601842878 1.4553976058959963 0.85847279429435719 0.69646711274981488 2.3407363668084136 1.0914084166288374 32.664424292743206 0.70958413556218047 0.78887819871306497 0.85705035924911399 0.98205776140093792 80.736263085156679 6.8830878995358944 1.0548312664031985 1.7622715309262256 0.67987368255853642 2.7307841181755066 0.77106885612010856 38.122768264263868 0.81619655713438799 1.6160937882959834 3.1081160977482796 1.4474885761737812 7.1928856521844855 1.0491312742233274 0.95397382974624534 10.02591753378511 2.7269938737154003 0.67605796083807934 1.315653197467326 0.7784292995929708 2165.9938456751406 1.1671334318816651 0.72670523449778457 0.78379086405038834 1.6108097881078722 2.9111763685941696 0.77707958593964566 0.73940567672252555 25.641288269311193 0.92254851385951031 1.1109244301915167 0.70999395847320634 3.7252143323421478 1.1520221345126618 0.71198080852627643 0.98375120759010315 1.1594308055937288 1.0431702211499212 3.2834810651838779 0.70952929183840741 1.0337798036634924 0.70345079153776069 16.847207322716713 0.87092641368508372 1.480219848454001 1.0906979180872429 1.9690206609666345 1.1178315505385428 1.5247098691761496 0.74831163138151069
leaf_count=34 36 22 129 1253 60 105 23 5095 349 30 38 3738 21 56 959 318 62 335 26 24 114 23 631 27 32 1471 26 31 18 22 22 31 39 44 44 166 32 23 29 27 39 3351 605 27 46 31 230 24 102 20 82 49 54 1414 24 17 227 66376 37 41 22 29 21 25 409 38 38 134 26 347 29 35 1266 24 83 77 29 26 43 69 23 32 69 28 2876 24 27 53 27 37 502 35 27 355 45 20 15665 43 26 32 29 66 31 351 18 24 36715 45 21 26 66 24 586 3420 33 36 20 35 32 25 26 28 20 25 20 20 80 20 21 143 129 34 57 1147 171 25 29 22 21 102 23 108 22 33 41 72 34 21 20 20 27 671 464 21 568 24 20 20 25 59 31 26 200 22 27 112 34 20 19 41 2205 28 32 26 23 39 26 69 39 147 30 48 107 58 53 257 29 36 24 35 233 231 40 83 28 39 23 20 69 32 950 20 23 25 28 2382 201 31 52 20 80 21 1119 22 47 89 38 210 29 28 295 80 20 38 23 64097 33 21 22 44 78 20 20 750 25 32 21 109 34 20 29 30 30 97 21 29 20 389 23 35 27 53 33 44 22
internal_value=0 -0.00190061 0.0616677 -0.00277503 0.0201271 0.119668 0.143406 -0.00426339 0.0891764 0.0152392 0.013154 0.0128743 0.151127 0.156127 -0.00585718 0.0107652 0.0624752 0.168516 0.125912 0.0828206 0.0390815 0.0364211 -0.00607431 0.190597 0.00643972 0.000638267 0.182172 0.029126 -0.00117508 0.165643 0.0091218 0.0394618 0.0177323 0.0378941 0.113572 0.0571589 0.07112 0.0243523 0.00867758 0.141318 0.142844 0.00588134 0.011175 0.0887253 0.0259768 0.108815 0.00843006 0.0411678 0.0298354 0.0673943 0.00749615 0.0245448 0.0872904 0.00562754 0.0142731 0.000736588 0.185216 -0.00682828 -0.00556318 0.0818413 0.113327 -0.00140522 0.111882 0.120708 0.0129076 0.00777999 0.0295604 0.0284935 0.0266124 0.00497812 0.194091 0.0576204 0.0114213 0.0506794 0.0381903 0.094572 0.136298 0.201435 0.0570064 0.097535 0.143074 0.159386 -0.005631 0.0528276 -0.005686 0.100576 0.146316 0.0189094 0.198749 0.0174306 0.0216796 0.118402 0.0065415 -0.00161439 0.02305 0.0897091 -0.0022349 0.175146 0.0585562 0.0853308 0.115419 0.0284126 0.0406039 0.0239166 0.0129961 0.175469 -0.00599476 0.0075686 0.115046 0.202384 0.16067 -0.00617392 0.00137818 0.000441576 0.0198769 0.0833806 0.130974 0.0225355 0.0135587 0.0439931 0.078415 0.136682 0.0924989 0.162741 0.0385328 0.212324 0.0341478 0.07531 0.108818 0.0372636 0.0437409 0.0512828 0.00520029 0.00384377 0.00748471 0.0379842 0.00540777 0.0912767 0.183442 0.00582964 0.0440933 0.0323105 0.0592913 0.0046739 0.0543649 0.201093 0.0515299 0.0979024 0.016108 0.00451599 0.107262 0.0299222 0.0340021 0.0462497 0.201022 0.144369 0.181129 0.0840852 0.129283 0.0250094 0.0263394 0.0789329 0.0201237 0.0766106 0.0146274 0.193044 0.0745306 0.114725 0.0659866 0.0478516 0.00397487 0.0427117 0.078461 -0.00151435 0.0542676 0.0252753 0.176482 0.0466164 0.0410023 0.0353796 0.057072 0.181483 0.179122 0.177033 0.147816 0.0129804 0.0315864 0.114648 0.0360785 0.0563595 0.0174704 0.0234357 0.095207 0.159465 0.175044 0.00260417 0.0417358 0.00342463 0.0356534 0.090308 0.00703429 0.0483689 0.0193054 0.0458235 0.0290949 0.000381542 0.00253573 0.0262415 0.0668448 0.133751 0.00144327 0.0106559 0.00869199 0.0377843 0.0303636 0.0238594 0.0551792 0.0128114 0.0288427 -0.00374196 0.0466696 -0.00108578 0.0337123 0.00256497 -0.00648164 -0.00649837 -0.00566251 -0.00570612 0.141333 0.0606441 0.155512 0.205613 0.11441 0.00822596 0.103479 0.0254922 0.0164612 0.0230086 0.00209805 0.00143599 0.0485975 0.212345 0.0629533 0.0213312 0.0395922 0.0454106 0.0181006 0.203474 0.196473 0.125658 0.202982 0.0931548 0.0243185 0.0122795 0.0512209
internal_weight=0 7833.78 106.296 7727.48 471.549 45.8148 98.4098 7255.93 45.7897 454.587 608.299 446.217 16.9617 19.5123 6647.64 588.132 18.1154 32.13 14.2296 20.1664 87.9617 86.5539 6606.63 52.6201 358.255 667.133 15.8346 41.0056 623.598 4.77032 570.017 26.2774 60.4812 15.5362 3.30685 15.396 8.70889 39.7342 567.564 8.36989 2.74029 357.031 230.742 8.97847 21.9998 4.2776 566.526 15.713 14.6728 6.81432 550.813 54.4082 6.44868 496.405 179.359 317.046 12.9319 5939.5 3706.46 5.42028 4.04076 622.88 2.4535 3.27994 176.566 134.998 41.5673 76.1699 43.5356 13.6848 51.6233 9.8499 55.0609 7.53172 5.9686 10.3841 3.13492 10.6672 14.6918 5.00302 3.64804 7.30242 3702.54 3.47999 3699.06 2.79366 3.19005 37.5605 47.7489 12.2294 61.4781 2.17369 133.651 621.776 15.2589 3.09692 606.518 2.80191 3.91631 1.88073 7.70926 68.8522 32.5672 42.5844 6.41757 2.47484 3592.01 46.8272 4.46294 17.9004 3.79842 3545.18 138.797 137.877 21.8221 4.79916 2.05129 36.7682 34.2642 3.67773 2.36475 3.87437 1.94296 1.73267 21.0622 9.69672 22.685 3.61713 2.26466 31.4921 26.6132 22.222 47.5292 161.89 123.258 7.85845 115.4 1.77012 1.49609 132.733 4.40568 18.9786 6.17261 107.057 2.62548 3.92336 5.33042 1.93935 47.9595 128.328 2.46522 44.432 39.8952 23.4922 46.7152 1.93771 1.9314 3.06875 6.65768 3.39107 19.0679 2.01534 17.0526 1.95448 47.2012 14.9391 3.29624 1.67836 1.44021 2.74786 127.593 8.47343 2.92561 76.8179 1.70166 4.2075 2.24681 21.0584 18.688 17.2697 1.92709 2.91746 10.1814 6.13469 3.03355 46.2484 11.2006 2.31935 9.68876 2.24679 36.285 28.4017 2.08368 5.76827 4.42095 45.4814 4.02983 104.431 4.12861 1.78788 35.0477 2.38331 12.8059 2.31245 8.86931 316.359 235.623 10.3801 3.49698 1.7347 225.243 48.5155 47.7444 8.30597 2.94529 5.54781 2.4397 15.0981 7.90522 530.142 12.2732 176.727 3.40305 39.4384 3406.38 3405.6 2167.89 2166.72 1.71379 2.39313 3.85727 3.10113 1.92298 76.3755 2.10728 6.97116 16.403 7.48978 100.303 99.1506 1.69573 5.52076 2.04564 7.88725 4.60377 3.76456 26.3447 44.7775 27.9303 2.35115 25.5792 2.80041 3.17136 50.7752 2.27302
internal_count=233833 231367 2939 228428 13799 1198 2466 214629 1226 13349 17694 13129 450 495 196935 17147 505 797 370 547 2552 2518 195768 1240 10577 19692 392 1167 18422 118 16642 731 1741 443 88 429 235 1136 16574 220 71 10545 6807 245 617 114 16545 447 423 193 16098 1563 175 14535 5219 9316 334 176076 109700 146 107 18404 68 91 5141 3944 1197 2233 1270 401 1213 268 1595 208 164 285 79 273 420 136 93 190 109590 97 109493 78 83 1078 1116 355 1813 58 3906 18375 441 86 17934 70 110 54 208 2022 953 1244 184 67 106339 1367 114 427 92 104972 4083 4059 639 135 56 1062 991 103 66 97 49 47 613 247 653 100 61 922 779 650 1387 4785 3638 228 3410 47 41 3879 125 553 179 3154 74 94 152 55 1388 3754 71 1311 1177 692 1089 47 48 81 179 97 553 57 496 57 1368 366 87 46 40 79 3734 233 78 2254 49 121 55 616 547 508 54 69 254 158 80 1341 322 65 284 61 1069 836 60 147 111 1330 116 3080 121 52 1019 69 374 64 260 9299 6917 304 103 51 6613 1418 1397 240 84 155 66 439 229 15693 361 5195 100 1157 100889 100866 64151 64118 49 66 103 78 53 2241 56 203 485 218 2959 2925 49 135 59 232 135 109 770 1042 653 58 595 76 93 1480 66
shrinkage=0.01


Tree=2
num_leaves=256
num_cat=0
split_feature=296 226 18 357 24 84 246 305 8 101 21 24 21 20 84 363 195 197 51 25 5 7 354 4 12 390 240 320 12 408 6 4 292 84 69 324 349 306 172 392 142 39 126 282 354 354 116 0 9 0 7 362 6 84 243 24 18 24 282 306 390 126 316 17 296 24 17 18 0 63 93 256 101 272 126 25 16 84 4 21 39 0 9 39 266 21 24 25 154 339 5 351 39 354 0 278 354 188 7 333 324 349 345 25 3 4 452 126 7 320 34 354 121 24 22 251 188 12 3 200 354 6 21 303 207 0 39 34 408 28 0 303 200 42 212 346 408 3 408 16 0 24 21 121 34 7 349 106 141 0 185 408 386 203 331 92 91 349 12 357 0 101 7 333 320 0 521 333 15 385 0 386 0 260 28 349 3 3 6 353 354 356 106 0 169 9 35 5 94 390 284 408 340 337 28 3 386 172 0 208 221 235 278 303 381 7 4 84 75 4 21 21 350 0 0 0 22 4 0 3 408 260 243 21 25 0 380 213 59 35 21 86 351 34 16 12 163 15 126 0 0 330 295 33 346 52 354 390 310 0 261 126 4 4 118
split_gain=16445.2 4848.59 2452.03 1982.65 1714.32 1349.12 1291.98 997.96 964.395 852.781 829.375 727.391 620.486 1435.18 572.201 533.238 497.499 464.963 455.135 414.114 384.087 352.354 361.068 340.244 337.777 331.692 317.444 312.327 286.711 254.577 232.315 216.773 211.924 208.667 183.038 181.708 254.339 178.11 176.424 213.211 174.367 173.715 173.531 171.182 170.375 166.811 223.644 167.652 191.082 165.252 165.002 164.663 155.019 153.29 147.715 144.483 164.057 147.392 139.016 138.495 180.715 136.287 136.076 139.135 135.219 134.839 225.395 129.226 126.152 288.906 125.501 125.298 123.641 122.807 117.522 117.145 116.774 116.538 115.642 111.769 106.451 127.899 104.213 99.5987 208.232 115.26 179.031 98.468 255.574 100.234 97.7605 96.3549 173.673 181.68 155.135 95.934 93.7318 92.7151 90.3233 90.2167 87.9699 98.6614 86.8906 86.0748 84.7831 82.4606 677.508 84.2386 80.9409 89.569 152.294 76.6611 110.457 74.73 133.046 73.856 73.4648 89.1977 73.1003 72.479 72.135 71.7577 71.115 120.059 69.8565 85.7238 69.3246 67.483 67.3662 66.5977 64.8019 64.5431 63.9492 63.4814 62.6331 59.1091 88.0245 64.1411 58.6949 58.659 58.1114 57.6608 91.241 168.49 82.3442 120.298 108.133 67.1884 115.88 57.641 61.0924 56.0791 88.2657 88.0822 55.6703 55.2938 54.2092 53.4916 53.3331 52.9002 52.6365 52.6084 74.8581 51.9997 51.2543 87.4837 122.287 91.3013 49.8579 63.1524 49.5318 61.0472 53.157 48.7854 48.1445 96.0677 282.463 47.7469 47.66 52.1463 125.37 47.6014 46.5836 46.0135 93.8181 123.472 63.9857 45.9023 73.6234 60.8205 65.1851 50.1226 45.3957 45.3163 113.502 44.7683 52.9616 64.4229 43.3709 42.9934 42.7618 42.4193 41.7552 41.6195 41.5764 41.1323 50.5904 40.5731 40.4002 40.3665 74.0502 50.001 43.1626 40.25 40.1543 39.655 39.112 43.1965 47.7436 38.5047 54.3703 51.1441 67.392 67.9919 38.3004 37.9006 37.849 37.7571 37.7428 37.6317 37.237 37.2363 37.0634 130.079 36.9034 126.933 56.4786 85.1987 36.768 36.675 50.211 36.368 35.715 35.092 34.9686 34.7743 136.987 56.3118 34.4021 37.1152 55.9363 34.0521 33.8659 47.3517 33.8097
threshold=2.6438738308873959 0.17670366567584878 -0.028629643935937848 0.043989378153493575 -0.15065085365848629 2.0995923599118402 -0.037703327535057486 1.0000000180025095e-35 -0.3700798019526399 3.2854842384013363 -0.064618170396044838 -0.15065085365848629 -0.046269307511126671 0.70146572907241922 0.86982325806214256 2.2902232078278844 3.771345677078259 3.3787610747008343 2.0549974754814588 0.75622240131955631 2.3106670835688088 -1.0096809938244369 1.4287689495744311 0.95402824535018282 -0.088382467329123596 1.0000000180025095e-35 2.7368524437570465 1.0000000180025095e-35 -0.071743012324880159 -1.0000000180025095e-35 -1.8619489881860807 -1.5633434900395171 1.0865898662174112 3.3293614617615379 1.0000000180025095e-35 1.3870005427733261 1.9576156932829303 0.2387109928509242 -0.091266078717013269 1.0000000180025095e-35 5.6466170489505645 0.14431373607545564 0.94236504756048201 2.5120746327743069 1.0749892435950892 1.2333804137790858 2.4774727115043178 0.33778531519215182 0.043963877589611323 -0.34393269008700406 1.3542620055428356 9.879282328888296 -2.22622060426102 3.3293614617615379 -0.044102812010635851 -0.11427246910935708 0.48400221313892672 0.031241069087159856 1.3782009553886398 0.063500112077419041 1.0000000180025095e-35 2.5657227319252511 0.12652785538041952 0.0078823023554546786 3.8455805383191826 -0.15065085365848629 -0.01925263971416984 0.077432119596792748 -0.72702753657641328 1.0000000180025095e-35 3.7265778645078167 1.4098159866716418 5.1546631470032596 2.6314488466233841 2.5657227319252511 -0.56738519010470778 -0.054879656664794225 3.3293614617615379 0.75190350747217771 -0.064618170396044838 -0.66239512312928606 -1.1418319337595424 0.60167972978082263 -0.68946589021669358 2.9813438682215128 -0.073792601838503932 -0.13246166138392168 2.96445215183642 1.0000000180025095e-35 1.0000000180025095e-35 -0.26449653586503019 0.25761308092198409 -0.67322342996424911 2.7320269141842055 0.70130436763084625 1.0000000180025095e-35 1.2803856759041721 3.7860328094477347 -1.0000000180025095e-35 0.41166023514853628 0.76146797711303316 3.3790382750567614 0.1224538336105389 -0.055235519051098157 0.26300903570424833 -1.8849055730272524 1.0000000180025095e-35 4.1890804162900208 1.7857754101892429 4.6516199041505049 -0.59339434513447953 0.56954899285935168 1.5946388512098477 -0.059704892285663232 0.20244173633757945 0.081280103657422095 3.7860328094477347 -0.082835982327709126 0.59511124974601581 2.8946723039844642 0.65329184489867431 -0.80328460396828816 -0.092141464723422092 1.0000000180025095e-35 0.49247851826729783 1.4067132734871655 0.79942629959071587 -0.56918130042422799 -1.0000000180025095e-35 -0.49024368423132897 -0.94662986449689346 0.11180004281462032 1.0063759828796579 3.5342486980033478 1.0000000180025095e-35 -0.14305170756367852 1.0000000180025095e-35 1.2642145426955633 -1.0000000180025095e-35 -0.091961485331619033 1.3382498479705307 -0.13246166138392168 -0.073792601838503932 1.0000000180025095e-35 2.5845677730860275 0.03345575827731178 1.1286279701038398 1.5522985917444962 1.4787619077041845 -0.65798335005806219 1.0000000180025095e-35 1.0000000180025095e-35 1.0000000180025095e-35 -0.10728667583905335 0.52606426804054607 2.0238758977335727 6.1405713011434093 0.5592643600320496 -0.071743012324880159 0.57740415551115143 -0.48058160549802337 -1.0000000180025095e-35 0.1835473772847577 0.24872554218350904 2.7217705812152495 -0.60223859047901851 1.0000000180025095e-35 0.14010241354015762 -0.19338852556478811 1.0000000180025095e-35 0.45933859285141193 1.0000000180025095e-35 1.5015971762890306 1.0000000180025095e-35 0.93174598498614414 7.7956643490517994 -0.033168169320093734 1.0519303985016861 -3.3759528924975473 1.9719313386430291 2.6914405130657397 -0.017830209352678827 1.5522985917444962 1.0967943132140332 1.8897893114871136 -0.14057445585601 0.29926612880480497 2.0494186004378396 1.0000000180025095e-35 1.0000000180025095e-35 1.1935536139711962 1.0000000180025095e-35 4.6203486876773434 8.1013179305814393 1.3406443018855894 -0.65491576856485301 -1.0000000180025095e-35 0.31366582551407557 0.18964562853288494 1.0000000180025095e-35 22.159833099013909 4.1082554763841239 4.7621451221675875 0.046340147013115549 1.0000000180025095e-35 0.5062443581507664 -0.58946975299094706 0.86982325806214256 4.0853866888003969 1.2786528243663728 -0.092141464723422092 -0.10131589616588119 0.072183379357419933 -0.76832379209132473 0.43204697406360654 0.59252783200934878 -0.039191799727261965 -0.96921926051932028 -0.16453976494965161 0.5463267204553075 1.0000000180025095e-35 1.3666712659442652 -0.042738137797946024 -0.092141464723422092 -0.50752354024129887 0.45933859285141193 1.0000000180025095e-35 1.0000000180025095e-35 3.3798339398766366 2.8974741290547033 -0.0095715817412903303 1.4864070299274794 2.8618770973570684 2.5361416836655244 -0.079600875776010757 -0.082835982327709126 1.0000000180025095e-35 -0.19338852556478811 0.94236504756048201 -0.45326094866013217 -0.16453976494965161 0.26600390204284491 2.0838305728100108 2.1628218828562047 -0.14644971430206749 1.8988158659385739 1.6213190622518565 1.0000000180025095e-35 3.5195624516535049 -0.60223859047901851 1.288362781273825 0.94236504756048201 -1.1284690539989606 0.31090407937471198 4.012717473691918
decision_type=2 2 2 2 2 2 2 2 2 2 2 2 2 2 2 2 2 2 2 2 2 2 2 2 2 2 2 2 2 2 2 2 2 2 2 2 2 2 2 2 2 2 2 2 2 2 2 2 2 2 2 2 2 2 2 2 2 2 2 2 2 2 2 2 2 2 2 2 2 2 2 2 2 2 2 2 2 2 2 2 2 2 2 2 2 2 2 2 2 2 2 2 2 2 2 2 2 2 2 2 2 2 2 2 2 2 2 2 2 2 2 2 2 2 2 2 2 2 2 2 2 2 2 2 2 2 2 2 2 2 2 2 2 2 2 2 2 2 2 2 2 2 2 2 2 2 2 2 2 2 2 2 2 2 2 2 2 2 2 2 2 2 2 2 2 2 2 2 2 2 2 2 2 2 2 2 2 2 2 2 2 2 2 2 2 2 2 2 2 2 2 2 2 2 2 2 2 2 2 2 2 2 2 2 2 2 2 2 2 2 2 2 2 2 2 2 2 2 2 2 2 2 2 2 2 2 2 2 2 2 2 2 2 2 2 2 2 2 2 2 2 2 2 2 2 2 2 2 2 2 2 2 2 2 2
left_child=1 2 3 4 8 12 10 15 14 18 11 24 17 19 25 43 28 61 30 55 139 -20 82 40 -3 31 51 34 68 130 35 -1 74 45 38 111 -37 59 70 77 72 79 58 53 118 87 47 245 100 -17 214 97 -21 65 115 224 57 67 135 60 158 76 63 128 104 -2 202 80 -10 90 91 213 155 149 132 -35 83 174 127 160 81 -57 -23 84 85 163 129 89 -89 141 -70 105 93 226 -95 -51 -48 124 -74 102 101 159 133 -78 -61 106 -6 116 109 181 -111 195 120 -56 -115 -12 156 -118 -25 -19 -113 -96 151 -124 125 242 207 -50 -28 -87 -16 244 219 216 -99 136 161 239 -18 -9 -88 142 147 -144 164 146 -146 183 -149 150 -26 204 225 215 -15 -11 187 -101 -22 -49 -7 162 -33 -4 -143 166 -166 -168 169 -71 -161 172 205 -68 208 182 -177 -80 -122 180 -180 -91 234 -32 186 -186 -185 241 -189 190 191 -190 -102 -94 -195 196 -5 -198 -108 -45 -126 -202 -67 -192 -92 206 -172 -109 228 211 -211 -104 229 -31 -24 -154 -29 218 -218 220 -13 222 -222 -224 -14 252 -93 -55 -40 -213 -83 -183 -36 -234 -176 -236 -237 -238 -219 -138 -241 248 -8 -203 -27 -47 -247 -248 -107 -250 -251 -132 -153 -254 -193
right_child=7 6 5 9 27 41 26 20 16 23 54 32 13 154 29 49 138 119 21 52 37 22 50 44 73 131 62 99 -30 71 33 42 -34 75 232 36 -38 -39 39 -41 -42 -43 -44 199 -46 46 96 48 78 95 -52 -53 -54 227 113 56 -58 -59 -60 64 -62 -63 -64 -65 -66 66 173 -69 69 168 -72 -73 98 -75 -76 -77 103 -79 177 -81 -82 230 -84 -85 -86 86 140 88 -90 108 122 92 193 94 121 -97 -98 134 -100 157 192 -103 209 -105 -106 107 198 126 -110 110 -112 112 -114 114 -116 -117 117 -119 -120 -121 178 -123 123 -125 200 -127 -128 -129 -130 -131 251 -133 -134 -135 -136 -137 137 -139 -140 -141 -142 144 143 -145 145 -147 -148 148 -150 -151 -152 152 153 -155 -156 -157 -158 -159 -160 170 -162 -163 -164 -165 165 -167 167 -169 -170 -171 171 -173 -174 -175 175 176 -178 -179 179 -181 -182 231 -184 184 185 -187 -188 188 189 -191 203 254 -194 194 -196 -197 197 -199 -200 -201 201 243 -204 -205 -206 -207 -208 -209 -210 210 -212 212 -214 -215 -216 -217 217 238 -220 -221 221 -223 223 -225 -226 -227 -228 -229 -230 -231 -232 -233 233 -235 235 236 237 -239 -240 240 -242 -243 -244 -245 -246 246 247 -249 249 250 -252 -253 253 -255 -256
leaf_value=0.16551142461255033 0.15312555512841353 0.014160680518110418 0.00056904711055426435 0.02017448498134327 -0.0037309014852358949 0.16117176504946581 0.016641213026225527 -0.00058349280805096025 -0.0036393340477557851 0.0127774949172732 0.045431092839927321 0.013660593708839699 0.18329261341431585 0.0056428963576654091 0.1319024814292056 -0.0023668796899639234 0.090233478696514283 0.098196518979545275 0.17264233771315562 0.13295866672403769 0.19512329026529199 0.0040681233397752035 0.0019736051666380482 0.022787685445977274 0.075758230239256957 0.017039205935936958 0.011287940861750372 -0.0012783132638685254 0.1887714438761304 0.098630800821174425 0.0023534865519351158 0.10137920041466938 0.19151528018789685 0.034292372639983477 -0.008718850711005692 0.16433865308362422 0.0065191502251176004 -0.010402486107537204 -0.00021637498398424326 0.18117533596954299 0.15856053148708837 0.026796819055869992 0.18560199266828634 0.17341114600621019 0.16845335193465236 0.004166073619069172 0.21243526169070687 0.012810753729856312 0.12068563491731832 0.044061724257713125 0.18483929753376097 0.14638229247840992 0.0073208476740068999 0.17769512015872402 0.17359888340385318 0.0014131166038126165 0.18526473223498591 0.018922860191418801 0.14595127646599912 0.14821512631368747 0.017124877660267782 0.099756419662877488 0.17847244311753874 0.16234738925802578 0.18156587793022572 0.062750081300381857 0.088035102762358028 0.15646970892153023 0.12515429932977321 0.0045906905819536378 0.095431351818615881 0.037198749090192558 0.022067318129073994 0.056304814367495938 0.12350136340122271 0.19472944430452468 0.12844583896146183 0.11259486354126619 0.10817177680761678 0.18203967546874811 0.0094846849998363163 0.11483896312562042 0.096149136193213941 -0.0034794705067236315 0.18814762692588399 0.15976041724508658 0.011950541736603799 -0.0017657785452525965 0.180414869085919 0.091247836990858172 0.027257541722721268 0.01022836441712458 -0.0034823405793440662 0.025754518825458272 0.20243691237873043 0.151537189541645 0.065077312698342674 0.14136481202745299 0.14747981222824064 0.13325510393981607 -0.0037770879586984745 0.12144780982137388 0.089650037077794592 0.0084559985129375112 0.024492863541685429 -0.0069624920514675401 0.083488819529713765 0.037608298830996985 0.13184393350998866 0.0059424399218581201 0.16990809116251118 0.12080954309863919 0.16041879014015437 0.038146250600217341 0.16946412332545435 0.15360533255283546 0.011896314696979986 0.1386525783920684 0.13758521062414417 0.20210837145138869 0.10619006080123036 0.077377820477213324 0.17440565580612663 0.021398112544458905 -0.0048402109570767522 0.11248583012118568 -0.0039902409924740282 0.013721557357340011 0.091843152086402341 0.052470162115988546 0.093129694018772538 0.083706371766593277 0.11089563409658508 0.080076226537437345 0.023538055399006046 0.013430362538188261 0.052884346123554263 -0.0011318378752225061 0.1821331723897805 0.091111776961895222 0.094537437780024547 -0.004188202780884118 0.19467158130617232 0.015994307387648746 0.02567404914553257 -0.0056684370805558685 0.18516242447496023 0.019404556336816897 0.14435877415160281 0.16454597663717432 0.16775675209083318 0.10234535042886142 0.1372634509169226 -0.00098439038723590125 0.090598335300425853 0.098361459117747907 0.057564065330827925 0.026678476233240347 0.099470361078102379 0.11744336024488655 0.064955466063629036 0.025364662441265385 -0.010387369682209095 0.077491750039287668 -0.010373256408836065 -0.0026750621369339522 0.041655152829682005 0.19014479527098679 -0.0078750636903033872 0.059314131869642885 0.13942469919315642 -0.0020283743811936182 0.11187751545012224 0.16779589090809627 0.00059313358257778465 -0.0037782361255590756 0.22902811409211576 0.20574629339295369 0.018835501526378248 -0.0073046208913979315 0.1409749539579831 0.0073471452603234011 0.090167306986000867 0.0086188646299057998 0.16818075730436707 -0.010367747042205552 0.08449355466473385 0.084433657074063098 -0.0033098561509331253 -0.0062635741692778149 0.021120906012648481 0.0076691125905318383 0.073142569009620156 -0.0043507560706457973 0.14786451724898364 0.0058437182026030215 0.12898526806554073 0.013560939421509988 0.16243986903437105 0.12246217928916217 0.078321333528723114 0.074279269421516178 -0.01040714540081028 0.11279954849754882 0.004870868074162679 0.011169292401924862 0.041793047302256608 0.13454111242642083 0.054374428274275584 0.020744760380685626 0.10949190263715465 0.015763856725506131 0.001771449167087888 0.1644332525405531 0.10182081858685209 0.067219025678637648 0.12053342391842183 0.00052712137716454848 0.025225603618205673 0.0022291928219145226 0.011836821686888826 0.0030335854397861555 0.034302897973609608 0.13196912336205815 0.12775625043417008 0.014288322026695662 0.074472869722326071 0.11386188687867048 0.055939703232530426 0.077079249568701547 0.19085764584391968 0.061232091922962743 -0.0017537523587545362 0.1429104232584073 0.13200210939139484 -0.01036325919352356 0.12127548328734167 0.0060264595094930819 0.06191032327637621 0.15969300487428859 0.081891156814082058 0.056992674021352933 0.08412397219460431 -0.0038240272769442126 -0.0044958808863821203 0.13451864031515232 0.089706826575443058 -0.0077987050574947845 -0.0069896963011802935 0.01515681809566867 0.11431655150676991 0.023756348184420812 0.0018670530225142316 0.057797689957167268 0.070835490734869333
